432 100
plane 0.06068 -0.32285 0.42991 0.43516 0.025248 -0.10673 0.08606 -0.57374 0.30259 -0.12917 -1.2268 -0.08237 -0.061285 0.23785 0.063404 -0.46525 -0.0018987 -0.65919 -0.4648 -0.13747 0.18716 -0.21065 0.19353 -0.077519 -0.04897 0.22821 0.26585 0.47154 0.20777 0.48779 0.060614 0.32481 0.030066 -0.5702 -0.28379 -0.11456 0.54985 0.36676 -0.20087 -0.23962 -0.15857 0.006404 0.06551 0.47918 -0.062372 0.7741 0.52044 0.8903 -0.22054 0.08254 -0.23589 -0.24816 0.13808 0.099104 0.28785 -0.41251 -0.32378 0.53337 0.56007 0.79184 0.67956 -0.057089 -0.0642 0.05648 -0.10669 -0.42556 -0.089911 0.42027 0.46652 -0.25147 0.33751 0.16309 0.34854 0.44812 -0.11867 -0.1044 0.25938 0.070558 -0.29848 -0.070125 0.23547 0.28821 -0.37069 -0.63218 -0.49259 -0.45217 -0.26679 0.54044 0.48042 0.38072 -0.042434 -0.21802 0.53545 0.24388 0.29967 0.02677 -0.17289 0.237 0.78095 0.16657
stupid 0.33004 0.07377 0.26542 -0.075208 -0.096373 0.20909 0.081719 0.011612 0.66794 0.001234 -0.40606 0.081308 0.13466 0.14204 0.30275 -0.69103 0.18802 -0.29235 -0.48696 0.1184 -0.15257 0.24638 0.33481 -0.31016 0.25478 0.75198 0.10316 -0.18809 -0.11859 0.02089 0.78261 -0.33536 -0.30559 0.04097 -0.39698 0.18278 -0.18511 0.17642 0.39092 -0.43243 -0.3606 -0.32843 -0.24929 -0.42465 -0.51824 0.096998 0.23819 0.65191 0.13222 0.2281 -0.067773 -0.63458 -0.10277 0.67888 0.14206 0.23662 -0.18811 -0.11243 -0.072602 0.46921 0.61059 -0.25265 0.57847 0.051704 0.76039 -0.22538 -0.19404 -0.22256 -0.30901 0.11772 -0.54265 -0.17663 0.79469 -0.065284 -0.73345 -0.051492 0.2019 -0.19221 0.18682 0.06459 0.5018 -0.10436 0.4962 0.27749 0.24222 0.13238 0.033023 -0.061216 0.9378 -0.066025 0.25553 -0.71059 0.42198 -0.29008 0.038904 -0.46718 -0.044392 -0.315 -0.021392 0.046835
egg -0.24145 -0.012201 -0.075048 0.32938 0.22684 -0.53907 -0.50614 -0.1898 0.20433 0.24689 -0.14004 0.88736 0.29309 -0.31268 -0.31767 -0.15205 0.16306 -0.71428 -0.57777 -0.58317 -0.24024 -0.090564 -0.48205 0.2574 0.24421 0.24091 -0.19748 0.18285 -0.15359 0.98932 -0.10186 -0.060469 -0.06193 -0.46692 -0.15665 -0.32259 0.4045 -0.81532 0.18796 -0.30257 0.54464 0.44961 0.38466 -0.68265 0.16803 -0.068022 -0.3393 0.52706 0.37722 -0.78912 -0.057368 -0.46306 -0.38824 0.368 -0.18348 -0.06953 0.50567 -0.53482 0.25515 0.60507 0.55492 0.10081 0.59773 0.77873 0.47613 -0.081209 -0.25611 -0.3287 -0.070443 0.38891 -0.085724 -0.21824 0.27884 0.2406 -0.62257 0.27828 0.038637 0.31165 0.46976 0.82005 0.75402 -0.6136 0.73874 -0.3006 -0.082526 0.0024189 0.05685 0.02189 0.014331 0.050401 -0.30522 -0.6856 -0.14484 0.65584 -0.11803 0.012707 -0.3129 0.37439 -0.095 -0.27851
year -0.18077 0.075387 -0.034786 -0.14293 0.25769 0.24533 -0.20505 0.14761 0.027317 -0.30359 -0.45755 -0.16364 -0.12129 0.16519 0.15526 -0.70772 -0.10753 -0.22739 -0.031488 -0.25936 -0.26372 -0.34384 -0.54416 -0.17902 0.127 -0.15146 0.42456 -0.020936 -0.1002 -0.091759 0.15971 0.73454 0.21534 -0.40265 -0.18098 -0.1495 0.21179 -0.14003 -0.30236 0.040906 -0.21947 0.40084 -0.099795 -0.15215 0.044991 -0.30325 -0.15803 0.44764 0.41876 -0.072514 0.19134 -0.13948 0.0093737 0.049623 -0.27457 0.23509 0.045414 0.065885 0.26336 0.089677 0.070299 0.17982 0.34158 0.034222 0.19341 0.17259 -0.52722 -0.065542 0.040305 0.084642 -0.24052 0.40495 0.15908 -0.27259 0.093613 0.19577 -0.12301 0.12732 -0.31985 0.52564 0.052721 0.28762 0.0047886 0.35077 0.1653 0.1058 -0.11588 0.41307 -0.14632 0.13765 0.05625 -0.092353 0.19326 -0.50212 -0.34792 -0.2508 -0.30203 -0.36907 0.20408 -0.29188
psychiatry -0.55494 -0.37534 0.28204 -0.0032553 0.22326 0.62195 0.14656 -0.60123 0.42491 -0.091245 0.14102 0.29646 -0.03072 -0.042082 -0.22696 0.13628 -0.035776 -0.63875 -0.048209 -0.35959 -0.07784 -0.61626 -0.12762 -0.23931 -0.030797 -0.31795 0.55737 0.29262 -0.43556 0.63534 0.57762 -0.68649 -0.19281 0.82062 -0.9089 0.17786 0.089648 0.19151 -0.18393 -0.58168 0.22281 0.93657 0.049567 0.28976 0.68892 -0.25785 -0.027412 -0.048659 -0.010467 1.204 0.50647 -0.86242 -0.61381 0.37664 0.13357 0.47866 -0.20926 -0.14971 0.29102 0.53979 0.40343 -0.32109 0.062151 -0.32851 0.78975 -0.095206 -0.053511 0.55423 -0.50487 0.52049 0.41873 0.34335 0.46077 -0.39309 -0.20643 -0.011863 -0.61223 0.24986 0.25453 0.24964 -0.19136 0.50732 0.2421 -0.040771 0.032482 0.53163 -0.12233 -0.51735 -0.071825 -0.27073 -0.17567 -0.62401 0.28909 0.56035 0.43265 -0.081571 -0.60718 -0.4599 0.30034 -0.18207
asylum -0.1092 0.64837 0.23393 0.099106 -0.095028 -0.0082004 -0.28379 -0.095246 0.67069 -0.22644 -0.5563 -0.071894 0.20817 0.49133 0.1966 -0.38262 0.12494 -0.43484 -0.16295 0.086527 0.29061 0.23851 -0.19312 -0.55902 0.55226 -0.048436 0.38386 -0.034091 0.10063 0.32053 -0.19943 0.38093 -0.20896 -0.12564 -0.67351 -0.10739 0.24366 -0.22388 -0.27993 0.79598 -0.47895 0.15825 -0.46743 0.050247 0.2102 0.36397 0.14768 0.68776 -0.82783 0.23567 0.22748 -0.26355 -0.09577 0.37841 0.72018 0.21737 0.27785 0.54769 0.29035 0.17293 1.345 -0.01424 0.322 -0.51417 0.10673 -0.25855 -0.3196 -0.085237 -0.79853 0.4052 0.4801 -0.071203 -0.31443 0.3014 0.0038408 -0.28372 -0.52552 1.0256 0.12239 0.5946 0.028863 0.31243 -0.32684 0.19771 -0.30726 -0.19586 0.43213 0.31468 0.16744 -0.2026 0.025647 -0.43975 0.46996 0.40837 0.65813 -0.26101 0.13744 -0.63805 0.0142 -0.90047
manslaughter -0.63274 -0.30131 0.51552 0.05955 -0.40407 -0.057868 -0.29975 -0.41227 0.43258 0.315 -0.28399 0.42502 0.078051 0.81289 0.1994 -0.23888 -0.52578 0.26434 -0.53987 -0.42629 0.22814 -0.39397 -0.27538 0.2553 0.052043 0.1724 1.1623 0.41964 -0.39605 0.71598 0.51294 -0.22118 -0.21489 -0.17421 -0.32285 0.32871 0.37111 -0.018846 -0.12039 -0.38104 -0.35025 0.59756 -0.7623 0.25324 -0.25836 -0.24661 0.096547 0.53392 -0.274 0.90415 -0.55299 -0.28185 -0.1236 0.25481 -0.59117 0.22544 -0.5078 -0.57151 -0.34768 0.13875 0.77237 0.19051 -0.0084573 -0.2621 0.34844 -0.020103 0.094729 0.11828 -0.46284 -0.014089 0.76391 0.17714 -0.15601 -0.83665 -0.32793 0.40796 -0.68337 -0.10857 0.92049 0.49679 -0.19804 0.37212 0.14092 0.4819 -0.31607 0.21326 0.67039 -0.054304 0.099423 0.30875 -0.44755 0.15789 -0.047423 0.034605 0.14861 -0.12395 -0.7575 -0.12183 0.56347 -0.73178
music -0.34903 -0.055484 -0.043575 -0.048982 0.26543 0.43001 -0.23681 0.52491 -0.1116 -0.0056772 -0.16204 0.3173 0.34018 0.46254 -0.44881 -0.32726 0.13596 -0.97815 -0.64516 -0.27499 -0.29128 0.22223 -0.14755 0.1738 -0.056888 -0.44322 0.69463 -0.39 0.079756 0.42282 0.053866 -0.38042 0.051014 -0.50487 -0.51439 -0.13761 -0.4022 0.23617 -0.38347 -0.90265 0.081786 0.056049 0.12247 -0.51095 0.082189 -0.071897 0.43621 -0.11407 -0.66751 0.40694 0.48788 0.14404 0.36021 0.35195 0.15384 0.22998 0.29258 -0.22992 -0.24159 -0.4058 0.5752 -0.17314 0.35163 -0.02606 0.40436 -0.51754 -0.4959 0.099699 -0.48631 -0.17014 0.34868 -0.39881 0.13614 -0.24022 -0.30897 0.11708 0.019713 0.11841 -0.65803 -0.077563 -0.033319 -0.34714 0.25309 0.34084 0.24524 0.29486 -0.67938 0.068678 0.11296 0.28219 -0.35044 -0.22712 -0.090139 0.38633 -0.072612 0.22743 -0.28001 -0.14901 0.46973 0.14568
record -0.43877 -0.59813 -0.033329 -0.45172 0.052181 0.051825 -0.081888 -0.57406 -0.55844 0.1525 -0.76012 -0.26171 0.60261 0.023182 -0.2785 -0.32037 0.18044 -0.50319 -0.15731 0.0092495 -0.34054 0.12017 -0.41568 -0.43199 0.23763 -0.31795 0.36265 0.25838 0.28798 0.017029 -0.0647 -0.0038875 0.088563 -0.30623 0.038994 -0.12831 -0.346 -0.24605 0.18352 -0.35063 0.17155 0.07575 -0.25917 -0.059009 0.0139 -0.40722 0.70422 0.50576 -0.16047 0.053617 0.46599 -0.1273 -0.21187 -0.34447 0.16367 0.45687 -0.25128 -0.39095 0.51873 -0.59142 0.28741 0.41028 0.20408 0.15935 -0.0094576 0.11287 -0.6867 0.28658 -0.04261 -0.31927 -0.092321 0.33314 0.33992 -0.063562 -0.039475 0.12763 -0.099012 0.15412 -0.29833 0.49439 0.20878 -0.22818 0.78262 0.058989 0.23002 -0.13889 0.10818 0.42805 -0.13083 -0.05938 0.088115 -0.22373 0.063983 -0.63743 -0.11344 -0.54345 -0.31043 -0.18604 -0.12165 -0.14285
energy -0.037887 -0.17483 0.37669 -0.62974 0.81837 -0.02981 -0.4231 -0.55572 -0.086031 0.11769 -0.55715 -0.087832 0.11644 -0.32036 0.3943 0.10485 0.0792 -0.25096 -0.54385 -0.30678 0.0011401 -0.025671 0.54931 0.30615 0.061683 -0.60085 0.56556 -0.18195 -0.28267 0.41964 0.10397 0.30418 0.36767 0.76831 0.11493 -0.038348 -0.28995 -0.45755 -0.085262 -0.47629 -0.40382 -0.27002 0.33601 -0.38955 -0.22582 0.41835 0.11435 0.017003 -0.055732 -0.2349 0.37309 -0.21864 0.078668 0.19236 -0.3858 0.23388 -0.074713 -0.28635 0.35648 0.19803 0.82411 0.19773 0.41726 -0.16464 0.29927 0.35329 -0.57958 -0.36731 -0.2372 -0.27899 0.38989 0.25213 -0.032927 0.12576 -0.44284 0.051435 0.20108 0.021011 -0.36495 0.24847 0.038536 0.30173 0.55418 -0.1055 -0.069892 0.057047 -0.64483 0.53016 0.22413 0.1252 0.39209 -0.68734 -0.034596 -0.45341 0.12693 0.70528 -0.086244 -0.077492 0.4912 -0.40018
announcement 0.12867 -0.20271 0.19824 0.33738 -0.30591 0.19426 -0.37024 0.011548 0.36083 -0.026753 -0.75273 -0.17874 -0.29435 0.34265 0.51583 -0.32131 0.28529 -0.56874 0.078443 -0.59533 0.47255 0.14377 -0.20956 0.31715 -0.15176 -0.20605 1.003 -0.035071 0.34723 -0.13299 -0.17901 0.32997 0.028456 -0.26043 -0.040017 -0.21625 -0.10652 -0.23823 -0.062394 -0.48313 0.42178 0.15382 0.071488 0.18095 -0.36328 -0.22743 -0.27956 0.31527 0.4651 0.045861 0.50392 -0.30963 0.020504 -0.016556 -0.29674 -0.21391 -0.24896 0.24243 0.099239 0.021157 0.56542 -0.31056 0.070999 0.59873 0.07523 0.0076479 -0.24801 -0.073033 -0.058556 -0.72872 -0.49646 0.008012 0.18311 -0.097022 0.10107 -0.12815 0.24591 0.19211 0.21857 0.35126 -0.68993 -0.077809 -0.22476 0.17332 0.15887 0.15914 -0.36202 0.36414 0.39124 -0.07353 0.061846 -0.38202 -0.20236 0.058513 0.12432 -0.17007 0.032801 -0.25154 0.45584 -0.24842
mile 0.16566 -0.36483 0.21657 0.010778 0.037901 -0.72398 -0.41782 -0.036525 0.098489 -0.43307 -0.42808 0.17724 0.11288 0.29795 0.10372 -0.80056 0.18936 -0.20254 0.04032 -0.56812 0.21965 -0.0051125 -0.21844 -0.44306 -0.66315 -0.44284 0.17921 0.6549 -0.12109 0.75093 -0.26675 0.2944 0.39478 0.15263 -0.54006 0.0086401 0.45271 0.087542 0.48669 0.54414 -0.18243 -0.1679 0.36478 -0.15358 0.62239 -0.26857 -0.20814 0.40009 -0.45949 -0.60075 -0.011461 0.35333 0.037712 0.58196 -0.56626 0.13992 -0.5055 -0.19557 0.057907 -0.20078 0.21214 0.39545 0.72148 -0.57887 0.20318 -0.08655 -0.29836 0.70717 0.52555 0.062292 -0.22135 -0.067883 0.3502 -0.087991 0.030871 0.16666 0.29521 -0.20559 0.56201 0.29662 0.24194 0.36387 0.23478 -0.24858 -0.17422 -0.41411 -0.28304 0.42535 0.38335 0.43044 -0.4782 -0.2779 0.29052 -0.71082 0.24894 -0.29093 -0.78855 -0.14128 0.30436 0.07284
airport -0.18279 -0.4639 0.27359 -0.19681 -0.013143 0.091261 -0.33136 -0.49987 0.51282 0.24319 -0.78766 -0.28177 -0.39789 0.19772 0.0074058 -0.71291 0.23018 -0.7449 -0.47162 -0.067807 -0.063668 0.022816 0.091504 -0.37168 0.05946 0.027638 0.77926 0.34425 -0.093613 0.48801 -0.095557 0.54194 0.21497 -0.31078 -0.67675 -0.34173 0.55125 0.41559 0.096886 -0.0058785 -0.15103 0.0066083 0.13749 0.58589 0.3364 0.36311 0.45179 0.46088 -0.53354 -0.30278 -0.36761 -0.047863 -0.013405 -0.176 -0.11712 -0.20502 -0.17071 0.7112 0.07015 0.53314 0.79415 -0.1875 0.088616 -0.0021251 -0.34833 -0.36873 0.31673 0.17731 0.23954 0.085615 0.6215 0.017183 0.47161 0.0813 -0.13825 0.15968 0.28196 0.32051 0.33917 -0.19719 0.33963 0.68826 -0.31829 -0.33926 0.078866 -0.65932 -0.5476 0.40575 0.018563 0.59939 -0.047862 0.185 0.542 0.37955 0.13161 0.058685 -0.23807 0.14173 0.46627 -0.13067
population -0.45933 -0.042163 0.058421 -0.067401 0.41192 -0.21884 -0.18127 -0.19097 -0.10092 -0.57911 -0.2121 0.87395 0.5904 0.3171 -0.40285 -0.18765 -0.03558 0.048392 -0.007342 -0.18894 -0.25435 -0.69751 -0.08391 -0.5106 0.051917 -0.024921 0.77642 0.19887 -0.27523 0.83461 -0.14017 0.96398 0.01467 -0.077818 -0.49464 0.071389 -0.092394 -0.22223 -0.094938 0.21008 0.075511 0.0068791 -0.09057 -0.0030905 0.10861 0.30356 0.21194 0.40331 -0.5317 -0.44596 -0.12136 -0.43064 -0.57076 0.54335 0.10426 0.23586 -0.24239 0.3386 0.44852 -0.22121 0.48276 -0.50619 0.63462 -0.68826 0.25068 -0.29428 0.0098809 -0.28039 -0.0040961 -0.17181 -0.35918 0.57035 -0.12557 -0.38821 0.14129 0.36833 0.34204 0.39902 0.41135 0.71018 0.31599 0.10549 -0.080888 -0.4656 -0.019699 0.30581 0.033671 0.016766 0.31022 0.10685 0.45525 -0.29759 0.47272 -0.30002 -0.18676 0.11453 0.015664 -0.21599 -0.18696 -0.27053
planning 0.18747 -0.10031 -0.033777 0.37888 -0.068235 0.41924 -0.25517 -0.26735 0.14242 -0.42814 -0.23386 -0.22272 -0.59155 0.22135 0.22735 -0.34945 -0.16333 -0.16895 -0.34737 -0.30081 -0.081815 0.036871 -0.092932 -0.060808 0.48807 -0.01478 0.59925 -0.10107 -0.12336 0.15564 -0.12481 0.14055 0.25449 -0.13455 9.4153E-4 -0.32214 -0.28927 0.08643 0.29491 0.28055 -0.34815 -0.04338 0.037024 0.28747 0.40429 0.11869 -0.025376 0.17009 -0.23194 0.34203 -0.052161 -0.40613 -0.12151 0.060142 -0.34433 -0.21188 0.0036958 0.09958 0.069039 0.239 0.60423 -0.51742 -0.21801 0.10454 0.59687 -0.11094 -0.34544 -0.15011 -0.36406 -0.31953 0.047651 0.52624 0.0096971 -0.042572 -0.27169 0.41792 -0.16288 0.14086 -0.12733 0.11707 -0.36572 0.28854 0.42439 0.22463 0.036151 -0.33527 -0.35851 0.195 0.49303 0.35881 -0.012014 -0.20506 -0.15239 0.12259 -0.159 -0.21259 -0.038979 -0.027249 -0.0050727 -0.4198
canyon -0.14139 -0.30879 0.31786 -0.11816 0.34024 -0.66722 -0.47371 -0.46659 -0.28134 0.15833 -0.48385 -0.32216 0.55999 0.12626 -0.15443 -0.37675 -0.44584 -0.26913 0.035197 -0.48805 -0.54551 -0.20408 -0.15337 -0.11247 0.090127 -0.27493 0.38757 -0.15613 -0.0027241 0.66108 -0.06983 -0.30193 -0.11464 0.094082 -0.30271 0.44535 0.43449 0.45006 0.26596 0.18651 -0.21681 0.15137 0.59099 -0.21958 0.62369 0.07058 0.20003 0.32604 -0.5786 -0.43755 0.26711 0.30598 0.14221 0.31083 -0.7138 0.11685 0.012442 0.30946 0.15025 -0.20503 0.38559 0.22429 0.39386 0.012232 0.14584 -0.6229 -0.0015744 0.17724 0.43086 -0.44081 0.04087 0.20728 0.14899 0.17655 -0.37667 -0.047968 0.24499 0.7934 0.39057 0.031913 0.42032 -0.03214 0.070745 -0.24199 -0.049862 -0.38469 -0.0029697 0.34489 0.12361 0.28543 -1.1867 -0.57873 0.17722 -0.44725 0.71112 0.0081678 -0.84037 0.038884 0.44164 0.68681
delay -0.047775 0.065731 -0.0023438 0.57988 -0.17306 -0.092981 -0.40423 -0.21075 0.48786 -0.15381 -0.45955 -0.0017792 -0.3431 -0.016784 0.010018 -0.53018 0.50897 -0.31722 -0.24852 -0.19289 0.26483 0.15259 0.20233 0.43276 0.56894 0.20482 0.90219 -0.15256 -0.097526 0.23178 -0.18128 0.30798 -0.49861 -0.13132 0.1167 -0.2939 0.52537 -0.27474 0.43174 0.1989 0.36354 -0.43426 -0.29544 0.06088 0.19521 0.10494 0.088644 0.49572 0.22715 0.40848 0.23817 -0.37603 -0.49521 -0.012147 -0.63468 0.034526 -0.11143 -0.47477 -0.15035 -0.050332 0.36374 -0.028562 -0.21304 0.59323 0.013468 -0.016029 -0.59842 0.35402 -0.2051 -0.33183 0.16922 0.47593 0.37237 -0.064497 -0.0092798 -0.1921 0.2566 0.38678 0.12787 0.25477 -0.34261 0.36758 0.16119 -0.058133 -0.22524 -0.027033 -0.18573 0.52992 0.13907 0.23968 -0.04386 -0.004578 0.17015 -0.17518 0.57641 -0.54956 0.036854 -0.18183 0.037976 -0.44419
size -0.2096 -0.43427 0.37575 0.26319 0.033142 0.1327 -0.46385 -0.15888 -0.0040419 -0.46944 -0.2837 0.077591 -0.093072 0.1914 0.052451 -0.593 -0.74588 -0.42239 -0.14348 -0.40475 -0.2355 -0.19166 -0.29353 -0.027293 0.051589 -0.26298 0.60786 0.042305 -0.43728 0.54553 -0.14184 0.35154 -0.14406 0.047048 0.15448 0.13532 0.020425 -0.44336 -0.023305 0.36225 -0.27815 0.23548 0.19235 -0.18532 0.31066 0.45778 -0.39519 0.17059 0.15789 -0.24018 -0.22358 -0.80624 -0.2546 0.11696 0.19208 -0.23572 -0.44576 -0.049671 0.32956 0.18282 0.18681 -0.13617 0.087887 0.17947 -0.22816 -0.24212 -0.075202 -0.41638 0.43874 -0.48469 0.15503 0.11495 0.36009 -0.15497 0.036252 0.32068 0.61551 0.13591 -0.33596 -0.083977 0.51076 -0.22421 0.58934 -0.48534 -0.068909 0.1664 0.25482 -0.20013 0.38757 0.42153 0.32648 -0.66876 0.25443 -0.60602 -0.07679 -0.0091976 -0.17039 -0.10933 -0.091871 0.24778
peace 0.39788 -0.10246 0.012604 -0.32763 0.16376 -0.80774 0.15438 0.44576 0.291 0.81726 -0.50287 0.34556 0.40278 -0.040628 0.53061 0.27841 -0.34133 0.10838 -0.018344 -0.27873 -0.084372 -0.49257 -0.093684 0.12431 0.44412 0.28636 0.90814 -0.32854 -0.15561 0.52947 0.12635 -0.51926 0.35174 0.30157 -0.38819 -1.1256 -0.68636 -0.051836 -0.47246 -0.70311 0.33756 0.40532 0.4567 0.15569 0.60119 0.34263 0.44603 1.155 -0.18272 0.097696 -0.14125 -0.32974 0.25259 0.44357 -0.25796 0.18143 -0.056314 0.48165 -0.33769 -0.68418 0.65405 -0.013775 0.40749 -0.011924 0.072645 -0.18542 -0.15008 0.30595 -0.69524 -0.48448 -0.37583 0.2778 0.38882 0.58754 -0.21101 0.19003 0.080795 0.75255 -0.24934 0.25013 -0.10737 0.38031 -0.16812 0.24248 0.39409 0.31627 0.011375 0.62985 0.19463 -0.48289 -0.75228 -0.36211 0.29297 -0.1505 0.36487 -0.14865 -0.15249 -0.16816 0.39622 -0.45501
science -0.59082 -0.31314 -0.069014 0.073361 0.49094 0.39178 -0.10365 -0.25262 0.47851 0.070963 -0.11285 0.10621 0.16879 -0.19637 0.21142 0.11153 -0.15331 -0.45368 0.40026 -0.14048 0.28998 -0.5923 0.18703 -0.16353 -0.31926 -0.20533 0.45599 -0.39527 -0.30731 0.4059 0.43826 -0.4081 -0.12545 0.2011 0.11872 -0.054235 0.17277 -0.32736 -0.069089 -0.70325 0.081323 0.15687 0.4687 -0.56939 0.68562 0.064862 0.37347 0.35015 0.12753 0.50261 0.5896 -0.47245 0.20859 0.63155 0.11753 -0.081649 0.13339 -0.26569 0.23772 0.3499 0.64108 -0.31442 0.31175 -0.43572 0.42612 0.27616 -0.60999 -0.31823 0.015063 0.26168 -0.18987 0.39372 0.37067 -0.46111 -0.55746 -0.14543 -0.1428 -0.033526 -0.42039 -0.25328 -0.44434 0.56933 0.17551 -0.56087 0.14767 -0.25875 -0.27171 0.062705 0.21887 -0.072607 -0.065977 -0.87577 0.4678 0.42591 0.24286 -0.24906 -0.22388 -0.60584 -0.071885 -0.15252
dawn 0.18189 -0.38585 0.34115 0.63061 -0.2771 -0.35738 -0.39219 0.012878 0.22752 0.50165 -0.43668 0.048285 0.031754 -0.10039 -0.13963 -0.4239 0.24089 -0.53259 -0.61289 0.043118 -0.37114 -0.10968 -0.57165 -0.24022 -0.26753 0.1461 0.65528 -0.12657 0.017753 0.034287 0.24808 0.17675 0.17602 -0.46311 -0.45479 -0.24431 0.54815 0.18405 0.16631 -0.23938 -0.10082 -0.069708 0.75113 -0.11877 0.10275 0.28835 0.35945 0.14671 -0.33085 -0.34698 0.30956 -0.42605 0.39506 -0.33529 -0.27728 -0.036205 -0.076597 0.089425 -0.27198 0.010788 0.35523 0.46902 0.56883 -0.42719 0.28425 -0.57311 0.092869 0.41354 -0.23893 -0.68529 -0.45418 0.25493 0.18809 -0.18806 -0.050304 0.041426 0.12473 0.39142 0.65859 0.38544 0.053962 0.12053 -0.29114 0.41978 -0.37088 -0.3693 -0.11242 0.36318 0.13347 -0.019197 -0.1272 -0.063923 0.55715 -0.067544 0.19952 0.025679 -0.021015 -0.075248 0.24724 -0.16584
brother 0.10215 0.55701 0.49831 0.29694 0.08932 -0.24302 -0.1906 0.17057 0.0027156 -0.12513 -0.63612 0.285 -0.71135 0.11071 -0.15918 -0.22271 0.62188 0.55735 -0.38319 -0.22179 0.25212 0.2916 -0.54622 -0.27914 0.096197 -0.4536 0.49884 0.14342 0.18956 0.24773 0.059507 -0.43829 0.33581 -0.19028 -0.73267 -0.18929 -0.057587 0.30263 0.14644 -0.16447 -0.11912 0.66245 -0.37437 -0.26249 -0.31996 0.071036 0.15716 0.37534 -0.37456 0.20481 -0.010463 -0.265 0.25421 -0.038088 0.027153 -0.49564 -0.57125 -0.21272 -0.19913 0.45098 0.37702 -0.026185 -0.077744 -0.41924 0.3492 -0.16886 -0.2762 -0.14273 0.11709 -0.34615 0.11036 0.93459 0.38682 -0.26622 -0.42843 0.055955 -0.28068 0.41231 0.045098 0.094201 0.31713 -0.094048 0.046977 0.13549 -0.39185 0.33466 -0.15678 -0.14002 0.052285 0.13152 -0.048312 -0.29836 0.50293 -0.1148 0.036223 0.16329 -0.3432 0.051457 0.6746 -0.42968
wine -0.32988 -0.52718 -0.13349 -0.085152 0.50643 0.5037 -0.07989 0.18254 0.3203 0.47156 -0.12448 0.67335 0.46343 -0.0021506 -0.37511 -0.34581 0.068353 -0.45525 -0.45477 -0.42757 -0.66685 -0.061269 -0.22569 0.11636 0.28939 -0.077887 0.1859 0.0030259 0.045846 0.86563 -0.054328 0.58461 0.29278 -0.094431 0.083985 -0.35837 0.24827 -0.10267 -0.13861 -0.59428 -0.49057 -0.16221 0.031647 -0.059763 -0.27029 0.024906 0.15025 0.29108 -0.2436 -0.47711 0.30517 0.54384 -0.046415 -0.24404 -0.12122 0.12532 -0.38634 0.042556 4.3355E-4 0.64338 0.76712 -0.19429 0.30941 0.2964 0.37061 -0.47754 -0.14235 -0.057369 -0.19846 0.18307 0.7441 0.13325 -0.12796 -0.02804 -0.2971 -0.11494 -0.055178 0.49441 0.31307 0.093979 0.79575 -0.32622 0.54493 0.32458 0.33398 0.66448 -0.43851 0.1436 -0.13747 0.19027 -0.63238 -0.71725 0.1257 0.38907 -0.03287 0.020491 -0.20916 0.034639 0.56607 0.38762
object 0.66649 -0.020715 0.4084 0.27976 -0.22503 -0.17391 -0.019145 -0.31577 0.0897 0.046446 -0.63336 0.0729 0.39171 0.11234 -0.029651 -0.2221 -0.32619 -0.21272 -0.087756 -0.33809 -0.22037 0.29214 0.1279 0.076335 -0.13764 -0.11864 0.80316 -0.024378 0.13817 0.12472 -0.085638 -0.25271 -0.19713 0.12483 -0.14228 0.1959 0.15865 -0.026003 0.0075093 -0.10656 -0.1995 0.068022 0.29302 -0.47176 0.36171 0.44295 -0.49044 0.47856 -0.18976 -0.02649 0.14 -0.11527 -0.15799 0.50485 0.23257 -0.17297 -0.10586 -0.63761 -0.10199 0.38313 0.33978 -0.038581 0.41846 0.020101 0.17558 -0.15861 -0.28395 -0.17722 -0.48187 -0.30285 -0.051853 0.043201 0.41265 -0.024774 -0.30828 -0.23639 -0.095178 0.33902 -0.093942 -0.32775 -0.16038 -0.24696 0.41049 -0.46006 0.1321 -0.039397 0.022072 0.14115 0.534 0.30314 0.37982 -0.46313 0.40729 -0.13786 0.50489 -0.33099 -0.2348 0.10526 0.5299 0.11051
attitude 0.21781 -0.4279 0.24613 -0.12639 0.50315 -0.25033 0.23966 -0.040793 -0.033995 -0.18166 -0.18772 -0.17154 -0.086217 0.23299 0.2222 -0.37654 0.027214 -0.36278 -0.11748 0.28094 -0.013123 0.24761 -0.25303 0.12936 -0.22095 0.39882 0.52243 0.39243 -0.31121 0.1593 0.16618 0.071799 -0.07004 0.26765 -0.44454 -0.24723 -0.43347 0.065587 -0.068561 -0.12532 0.050121 0.15425 -0.006594 -0.31379 -0.11384 0.31376 0.15278 0.22798 -0.22842 0.19943 0.75652 -0.41783 -0.87836 0.3339 0.16729 -0.4848 -0.14915 -0.24396 0.0025044 0.26896 0.6968 0.078708 0.31083 -0.23919 0.32449 -0.29668 -0.48476 -0.26118 -0.62682 -0.28699 -0.17046 0.16023 0.55024 0.060065 -0.034843 0.28118 0.041061 -0.17264 0.028986 -0.16386 0.28446 0.28356 -0.27662 0.36897 0.63611 0.37009 0.14451 -0.39505 0.73214 -0.31696 0.1323 -0.46519 0.25062 0.070691 0.3481 -0.17498 0.010306 -0.11322 0.11572 0.042751
treatment -0.071727 -0.12252 -0.10016 0.1059 0.53572 0.066482 0.03005 -0.25233 0.37098 0.017092 -0.47891 0.15113 -0.18026 0.26292 -0.033697 -0.044056 0.33598 -0.61896 -0.35878 0.18877 -0.0014214 0.055218 -0.18693 0.32047 0.1521 -0.21048 0.55232 0.25667 -0.53988 0.8975 -0.11999 0.36698 -0.38747 0.57641 -0.47797 0.16008 0.42986 -0.18076 0.074506 0.39045 -0.4024 0.16036 -0.24941 0.49819 0.136 -0.066482 -0.18156 0.3069 0.20171 0.48155 0.73075 -0.10167 -0.18906 0.40522 -0.38436 0.53913 0.089441 -0.15025 0.52415 0.086734 0.80624 0.034915 -0.12954 0.2161 0.24694 -0.042732 0.054024 0.25932 -0.54264 0.11095 -0.17512 0.20095 0.13227 0.29999 -0.11821 0.60952 -0.3762 0.37469 0.17721 0.6643 0.03494 0.43784 -0.11987 -0.21884 -0.32189 0.22396 0.062508 -0.57357 0.046298 -0.59518 -0.11275 -0.069777 0.06749 0.23657 0.033168 0.081178 -0.28813 -0.083692 -0.047101 -0.54758
flight -0.15268 -0.95453 0.041856 0.1562 -0.074771 -0.20336 -0.31619 -0.16181 0.29344 -0.18107 -0.91236 -0.23794 -0.34156 0.20696 -0.011881 -0.72056 0.071243 -0.86498 -0.20734 -0.055763 0.42293 -0.2822 -0.067844 0.0912 0.063052 0.46552 0.37049 0.48675 0.015148 0.69499 0.051667 0.47345 0.051452 -0.6182 -0.32384 -0.39771 0.52647 0.32813 -0.28255 0.015262 0.091712 0.20244 -0.044278 0.66986 0.16093 0.75816 0.7554 0.63633 -0.39004 0.28876 0.19335 -0.35664 0.12436 0.034033 0.51008 -0.40125 -0.54869 0.058149 0.32737 0.47623 0.59634 -0.20342 -0.0015917 0.12801 -0.35174 -0.2632 -0.15009 0.14193 0.54632 0.072403 0.50591 0.086541 0.34912 0.29534 -0.12127 0.16239 0.18743 -0.041698 0.19966 -0.3763 0.26989 0.62714 -0.28969 -0.48846 -0.4483 -0.44284 -0.2783 0.4193 0.20647 0.48735 0.024766 -0.0094311 0.40392 0.33193 0.05258 0.11536 -0.64845 0.063515 0.32966 -0.26369
forest 0.10837 -0.46793 0.4107 -0.19531 0.36775 -0.16501 -0.10593 0.069025 -0.29481 0.28008 -0.31736 0.13396 0.54629 0.28954 -0.25541 -0.47036 -0.29541 -0.037839 -0.30747 -0.68419 -0.25006 -0.30409 -0.0062168 0.067191 0.10061 -0.1436 0.91633 -0.22963 -0.10756 0.63115 0.22503 0.26508 0.10434 0.18929 -0.14198 0.50985 -0.17302 0.39998 0.17429 -0.1101 -0.16512 0.1902 0.65658 -0.071947 0.21895 0.10469 0.5065 -0.042234 -0.21616 -0.28212 -0.59413 -0.26986 0.18327 0.36854 -0.6266 0.62061 0.32741 0.0652 0.18779 -0.25939 0.7704 0.23751 0.54041 -0.70064 0.14511 -0.31425 -0.21251 -0.16673 -0.040077 0.058478 -0.08799 0.39838 -0.28918 0.088823 -0.42045 0.49133 0.37982 0.60844 0.27807 0.40192 0.32367 -0.27368 -0.17653 -0.43132 8.0025E-4 -0.26335 -0.325 0.14662 0.2868 0.28369 -0.49612 -0.73747 0.25143 -0.42691 0.59941 0.016995 -0.50169 0.086942 -0.14269 0.29616
abuse -0.61182 0.01851 -0.18256 -0.38542 -0.62837 -0.5148 -0.37444 -0.52752 0.37366 -0.0078584 -0.39846 0.39277 0.027763 0.60929 0.42144 -0.24822 0.36866 -0.44582 -0.35377 -0.54706 -0.3514 0.42191 -0.16924 0.1834 -0.051922 -0.052222 0.69163 -0.073953 -0.33257 0.18021 0.51036 -0.43565 -0.10463 0.49164 -0.34432 0.27118 0.49457 0.15879 -0.077307 -0.036677 0.045453 0.46527 -0.083112 0.15346 0.17843 0.10589 -0.079193 0.75076 -0.60239 0.96576 0.51941 -0.077875 -0.43844 0.24524 -0.19335 0.61382 -0.37614 0.32165 0.40215 -0.11998 0.81458 0.041445 0.069971 -0.733 -0.14805 -0.072312 -0.3845 -0.21113 -0.08561 -0.021741 0.22487 0.60614 0.31928 -0.52969 -0.36231 0.48902 -0.56551 0.053227 0.16864 0.040603 -0.090232 -0.28002 0.030411 0.022863 -0.024987 0.18905 0.46772 -0.27995 0.0025409 -0.4117 0.40691 -0.023408 -0.08187 0.32413 -0.021039 -0.32288 0.089319 -0.16539 0.1452 -0.34532
criterion -0.089215 -0.35983 -0.011317 -0.016161 0.22624 0.26156 -0.085332 -0.19943 0.33189 -0.61596 -0.22041 -0.0016488 0.06566 -0.14109 0.13637 -0.14269 -0.26247 -0.87956 -0.13046 -0.22956 -0.057261 0.24418 -0.38165 -0.14346 0.32886 -0.46645 0.65585 -0.12308 0.14337 0.42364 -0.20189 0.1183 -0.44561 0.4118 -0.23813 0.024566 -0.021324 -0.09684 -0.33862 -0.078925 0.29984 0.18103 0.23197 -0.12394 0.18065 -0.34835 -0.06066 0.39399 -0.075102 0.1836 -0.16503 0.05521 -0.16374 0.43046 0.015927 -0.060831 -0.39305 -0.64415 -0.19895 0.43704 0.36311 -0.50185 -0.10368 0.38009 0.15038 0.45263 -0.44284 -0.51481 -0.17248 -0.049712 -0.35771 0.08398 0.35057 -0.14042 0.10131 0.19556 -0.19071 0.10015 -0.14594 0.014645 -0.063603 0.38156 0.36764 0.23756 -0.068103 0.069122 -0.026117 -0.26372 -0.16001 0.2829 -0.015157 -0.27397 0.35928 0.14313 0.057309 -0.25338 -0.019321 -0.54312 0.15209 0.0079586
sea -0.085019 -0.23524 0.29947 -0.083012 0.47456 -0.37882 -0.077016 -0.30734 -0.075555 0.069805 -0.47193 0.20533 0.71558 -0.09914 -0.16314 -0.35737 -0.12783 -0.78295 0.14157 -0.24632 -0.17999 -0.14137 -0.24235 0.20086 0.25418 0.47468 0.16578 -0.35815 -0.12375 0.71689 0.11616 0.36482 0.028964 -0.30712 -0.082731 0.25834 0.17267 -0.24514 -0.3432 -0.14622 -0.28573 0.17142 0.072025 -0.34662 0.078321 0.81955 0.36358 0.31581 0.092831 -0.13846 -0.14936 -0.24776 0.40394 0.025345 -0.58737 -0.39049 -0.045339 0.29877 1.048 0.049149 0.50647 0.66839 0.9532 -0.061935 0.077202 -0.86285 -0.25443 -0.46323 -0.13968 0.071674 -0.086902 0.062632 -0.23515 -0.10662 -0.30273 -0.0079459 0.42115 0.20565 0.18165 -0.1108 0.65234 -0.22155 0.30761 -0.15279 -0.46336 -0.40213 -0.20029 0.28343 0.004867 0.22659 -0.83581 -0.61858 0.42793 0.059664 0.37606 0.11685 -0.43328 0.32174 0.36026 -0.13831
dollar 0.032224 -0.35117 0.25355 -0.83686 -0.071058 -0.091899 -0.17834 -0.55602 0.03372 -0.19209 -0.92804 0.041209 -0.55544 -0.22476 -0.52063 -0.36144 -0.20214 -0.45126 -0.11263 -1.0003 0.10167 0.25727 -0.070146 0.060018 -0.44257 -0.23587 0.68112 0.31744 -0.24956 0.43318 -0.26788 0.2798 -0.3108 -0.35379 0.095002 -0.18444 0.17796 0.083518 0.28204 -0.71564 -0.094839 -0.39832 0.046399 0.066259 -0.029393 0.16902 -0.24523 0.58252 0.19473 0.24354 0.44897 -0.16072 -0.19922 -0.33041 0.41362 -0.24988 -0.18361 -0.18051 0.67977 -0.39106 0.37141 0.3028 0.44799 0.072549 0.53552 -0.82273 0.041609 -0.37121 -0.34125 0.25386 -0.38563 -0.30592 -0.3456 0.13334 -0.22075 0.12746 0.62363 0.0046428 -0.57381 0.98037 0.29567 0.2614 0.17966 0.64082 -0.47237 0.25192 0.015397 0.92594 -0.37346 -0.075822 0.1899 -0.33082 -0.26935 -0.51656 -0.069976 -0.14499 -0.31596 -0.81186 0.05231 -0.0095529
example 0.062634 -0.24448 -0.12025 -0.21545 0.31595 0.33761 -0.52582 0.079542 -0.015641 -0.17469 -0.13342 0.44354 -0.17261 -0.17552 0.51866 -0.49611 0.068351 -0.27586 0.14816 0.031672 -0.28855 -0.2441 0.11697 -0.075097 0.076522 -0.43663 0.41087 0.0089985 0.21671 -0.0031182 0.042782 0.026741 -0.41351 0.16361 -0.18518 0.064937 0.12972 -0.085158 -0.027962 -0.0085759 -0.10137 0.32266 0.08654 -0.043471 0.091891 0.16632 0.3115 0.17219 0.11552 -0.22132 0.028912 -0.022447 -0.28508 0.033175 0.033926 0.01123 -0.095958 -0.05142 -0.0072773 0.11724 0.5452 -0.19164 0.13621 0.15429 0.27836 -0.19753 -0.41878 -0.16318 -0.44669 -0.037607 -0.026843 0.24176 0.28256 0.12599 0.18978 0.41808 -0.21833 0.26536 0.19257 0.33197 0.016626 -0.11508 0.13456 0.2679 -0.18286 0.20801 -0.032591 0.015625 0.41836 -0.25422 0.14455 -0.37921 0.36304 -0.23811 0.038176 -0.33823 -0.36694 -0.38934 0.39008 0.28321
journal -0.49451 -0.22388 0.17845 -0.011787 0.67273 0.50748 0.57693 -0.46407 -0.49884 0.14573 0.37929 0.60086 -0.088022 0.11524 0.39464 -0.48896 0.042492 -1.0594 0.93404 -0.86816 -0.11498 -0.64237 -0.46513 -0.14424 -0.098579 0.02816 0.36349 0.19123 -0.020487 0.49976 0.4064 0.2081 -0.33877 0.3198 -0.34331 0.37432 0.20171 -0.30388 0.034576 -0.39899 0.17648 0.42647 0.061837 -0.14109 0.34425 -0.57618 0.30872 0.60461 0.33815 0.71079 0.46079 -0.94489 0.043741 0.32179 0.24398 0.2265 -0.43832 -0.2957 0.48631 0.31227 0.72549 -0.31688 0.40417 -0.07739 -0.12782 -0.089169 0.034581 0.44313 0.26419 0.64921 -0.80657 0.34466 0.30013 0.40556 -0.17012 -0.48611 -0.26852 0.019773 0.39497 0.3437 -0.21416 0.48646 0.66136 -0.35705 -0.10679 0.63267 -0.23247 0.035391 0.43541 -0.16169 0.010217 -0.21446 0.15891 1.2496 0.74339 0.13641 -0.36326 -0.65922 0.95294 -0.43072
laundering -0.61419 0.096104 0.3688 -0.60859 -0.44776 -0.0673 -0.43186 -0.69966 0.39382 0.2444 -0.38492 0.33294 -0.050623 0.37541 0.098248 -0.35804 -0.14881 -0.091971 -0.10064 -0.28262 -0.10829 0.029941 -0.059511 -0.073573 0.59855 -0.09395 0.83795 -0.062319 -0.74551 -0.17789 0.36289 0.063461 0.52202 0.22097 -0.15989 -0.25334 0.78805 0.41635 0.48353 0.081853 -0.78412 -0.23211 -0.28921 -0.04711 -0.16692 -0.16555 0.35608 1.0379 -0.17281 0.60508 0.0017401 -0.51828 0.27852 0.10103 -0.30247 -0.10065 -0.072358 0.19079 -0.21116 -0.13277 0.81502 -0.18098 -0.21351 0.16545 -0.017843 0.20019 0.10026 -0.29676 -0.036199 0.027959 0.080145 0.02077 -0.57585 -0.18807 -0.64048 0.67099 -0.80856 -0.016383 -0.045026 0.36516 0.77036 -0.17994 0.41546 0.77083 -0.49595 0.022725 0.58957 0.36916 0.25705 0.038756 -0.23089 -0.36254 -0.28688 0.06146 0.2116 0.085509 -0.23808 -0.21722 0.33597 -0.45166
hotel -0.24482 -0.61615 0.41895 0.14763 -0.34849 0.1967 -0.089672 0.2768 0.438 0.3245 -0.5624 -0.39254 -0.59486 -0.17842 -0.076053 -0.29397 0.01146 -0.37786 -0.43147 -0.39207 -0.9336 -0.063935 0.049665 0.12482 0.18728 -0.28586 0.19598 0.15302 0.50534 0.38923 0.042631 0.57238 0.071863 -0.059133 -0.77125 -0.42312 0.2129 0.45252 0.2578 -0.17165 -0.27282 0.22967 0.042372 -0.089852 0.25066 0.21206 0.29496 0.4072 0.044104 -0.4984 0.070288 0.11635 0.17708 0.22969 -0.28839 -0.25619 -0.24573 0.24835 0.27141 0.30806 0.5891 -0.16365 0.40427 0.056729 -0.082544 -0.35884 0.3474 -0.088269 -0.13954 -0.32899 0.90646 0.14293 0.11351 0.43586 -0.17171 0.48123 -0.21366 0.22978 0.23653 -0.044066 0.36589 0.43198 0.071753 0.35843 -0.048526 -0.33647 -0.13632 0.082153 -0.22972 0.38338 -0.52056 -0.2341 0.029264 0.179 -0.32886 0.2088 -0.62308 -0.001545 0.51216 0.16085
term 0.11015 -0.25092 -0.092415 0.0047268 0.22537 -0.076078 -0.5354 0.33633 0.10298 -0.4825 -0.6993 -0.33405 0.3266 0.29619 0.39876 -0.20955 -0.3566 -0.0077998 0.48626 -0.47427 0.31709 -0.038331 -0.072841 -0.36593 0.45131 0.030321 0.6841 0.042481 -0.33947 0.69801 -0.14334 0.16075 0.25601 -0.016935 -0.38754 0.066819 0.038626 -0.524 0.11585 -0.2608 -0.19678 -0.22472 -0.22442 0.16565 -0.13389 -0.52247 0.2075 0.62535 -0.10701 -0.092194 0.41437 -0.46206 -0.39734 0.1258 -0.47342 0.038601 -0.27991 -0.3788 0.25981 -0.17484 0.28405 -0.66066 -0.17742 0.25182 0.17788 -0.01941 0.015825 -0.24171 -0.089204 0.16429 -0.33307 0.21724 0.14965 -0.14556 -0.046613 0.036494 -0.26664 0.19165 0.044323 0.17126 0.33397 0.45463 0.070335 0.63776 -0.369 0.34837 -0.1478 -0.0044702 -0.42043 -0.59673 -0.059904 0.2323 0.77279 -0.84282 -0.040367 -0.28291 -0.45948 -0.32475 0.011764 -0.43622
listing -0.074795 -0.19422 0.0092588 -0.40587 -0.59013 0.18585 0.13718 0.036629 -0.28113 -0.36533 -0.52131 -0.11511 -0.30602 0.096433 -0.18899 -0.5436 -0.1154 -0.48967 0.49314 -0.53322 0.1401 -0.0079687 0.2103 -0.27072 0.2012 -0.44675 0.83795 0.07116 0.40217 0.56627 -0.75521 0.38036 -0.10731 -0.089843 -0.07202 0.087197 0.084804 -0.24534 0.47889 -0.0076846 -0.4604 -0.0070971 0.34498 0.1487 0.1936 -0.0034892 0.39176 0.23117 0.18924 0.20835 0.13911 -0.02397 0.13567 -0.22259 -0.089888 0.11764 -0.2829 -0.29211 0.12689 0.04838 0.50972 -0.7087 0.03795 0.59887 0.061498 -0.34012 0.050339 -0.060875 -0.15556 -0.36519 -0.12019 -0.32046 -0.27318 0.26011 0.10163 0.10574 -0.15691 0.46019 -0.090841 0.18816 0.2025 0.035507 0.10775 0.48608 0.023873 0.36868 0.32475 0.20905 0.17687 0.15611 -0.54659 -0.39955 0.020379 0.20444 -0.1406 -0.35909 -0.058555 -0.1635 0.3169 -0.32259
chemistry -0.4375 -0.15517 -0.2486 -0.014291 0.81849 -0.057555 -0.29253 -0.020235 0.55993 0.45822 -0.1955 -0.023032 -0.11166 -0.38772 -0.13121 0.50172 -0.22016 -0.49396 -0.16556 -0.25504 -0.06018 -0.62719 -0.38393 -0.058422 -0.017065 0.05485 0.20663 -0.24595 -0.046872 0.49173 -0.09126 -0.37868 -0.088966 0.036502 0.066246 0.033705 -0.014746 -0.15589 -0.29514 -0.19999 -0.63568 0.30462 0.03363 -0.2389 0.43606 -0.17233 0.46976 0.24875 0.098698 0.4933 0.76131 -0.36263 0.089312 0.39717 0.14615 0.47431 -0.062283 -0.405 0.33309 0.55952 0.2872 -0.2918 0.20654 -0.33078 0.28445 0.12153 -0.41585 -0.4673 0.10835 0.45201 0.034568 -0.07592 0.50819 -0.25554 -0.61698 0.11432 -0.19065 0.27878 -0.17114 -0.13063 -0.26567 -0.052113 0.47451 -0.44692 0.36985 0.49851 -0.36692 -0.19968 0.54766 -0.06884 -0.36958 -0.60202 0.21318 0.1874 0.40298 0.089959 -0.71176 -0.22479 0.50573 0.2051
seafood 0.12531 -0.46561 0.065573 0.39033 0.83428 0.20549 -0.073745 -0.18976 0.25983 -0.22377 -0.32731 0.65921 0.075431 0.10237 -0.33308 -0.37862 -0.079393 -0.35017 -0.35626 -0.37963 -0.58054 -0.47069 -0.11336 0.46358 0.059626 0.12536 -0.052234 -0.24087 -0.13072 0.46268 -0.12391 0.59417 -0.34608 0.34038 0.31331 -0.57714 0.32405 0.14005 -0.054927 -0.44778 -0.34578 0.22384 0.47901 0.056294 0.25063 0.30449 0.54518 0.11856 -0.19334 -0.58557 0.11178 0.39874 -0.20272 -0.34055 -0.33211 0.50799 -0.29836 -0.24989 0.36056 0.49896 0.56897 0.079087 0.58879 0.20252 0.51131 -0.54346 -0.30146 -0.81733 0.019177 -0.048695 0.16863 -0.16289 -0.41419 0.13911 -0.23984 0.31959 0.15927 0.12679 0.7494 0.11395 0.57568 -0.11996 0.70647 0.14451 0.034876 0.26144 -0.44298 0.34737 0.13133 0.35099 -0.90518 -0.64211 -0.26265 0.55412 0.11347 -0.14015 -0.41751 -0.035365 0.30223 -0.24217
CD -0.57846 0.22458 -0.12496 -0.14132 0.024673 -0.010836 -0.44212 0.51586 0.20983 0.063024 -0.48502 -0.073427 0.020192 -0.13971 -0.50715 -0.72999 -0.13345 -1.1058 -0.34573 -0.55241 -0.2209 0.83181 -0.70446 -0.20593 0.14771 -0.98608 0.40968 0.039124 0.59001 0.49979 0.65994 -0.0084668 -0.1272 -0.48106 -0.49809 -0.34744 -0.27594 0.22688 -0.04266 -0.46046 0.33672 0.19525 0.23219 -0.23936 -0.15421 0.051946 -0.11987 0.097084 -0.69207 0.50813 0.11634 -0.15884 0.31139 -0.056939 0.046722 0.63411 0.0049941 -0.41184 -0.26048 -0.087075 0.53333 -0.29846 -0.058579 0.36146 0.13328 -0.16779 -0.60633 0.44111 -0.098285 -0.42713 -0.38651 -0.25287 -0.096454 0.82732 -0.58472 0.027805 -0.15429 -0.27829 -0.60526 0.21938 0.44848 -0.5896 0.18846 0.47136 0.38101 0.57138 0.11506 0.2079 0.2842 0.1155 0.35979 -0.022448 -0.12482 -0.15102 -0.28362 0.18242 -0.54579 -0.039718 0.37545 0.20038
mind 0.046991 -0.31359 0.36866 -0.063915 0.14299 -0.002171 0.1607 0.015925 0.11451 0.08138 -0.59495 0.10545 0.017064 -0.042817 0.039274 -0.36472 0.22736 -0.57224 0.05335 0.29255 -0.13905 0.030688 -0.12313 -0.022948 0.029942 -0.031193 0.40737 0.25316 0.12726 0.09645 0.39073 -0.38616 0.15111 0.047152 -0.46887 -0.31377 -0.24209 -0.085968 0.028625 -0.40274 0.029446 -0.306 0.29703 -0.011348 0.37654 0.09767 -0.17855 0.36173 -0.024365 0.13356 0.10821 -0.41343 -0.066448 0.39532 0.017303 0.38021 0.036646 -0.36724 -0.27803 -0.11722 0.21106 0.079678 0.44537 0.39492 0.4864 -0.52123 -0.51283 -0.48675 -0.44133 -0.2727 -0.17486 0.12856 0.65685 -0.015496 -0.19154 0.024652 0.22982 0.26338 0.073223 -0.013402 0.3926 0.0719 0.12367 0.1305 0.3179 0.32997 0.20226 -0.32947 0.54728 0.28151 -0.17895 -0.2076 0.51272 0.067142 0.11448 -0.31102 -0.36694 -0.0054582 0.28424 -0.0027947
sex -0.30579 -0.54908 -0.27726 -0.25817 -0.30439 -0.51263 -0.37038 -0.022717 0.11548 -0.099533 -0.44459 0.29331 -0.0083372 0.089957 -0.25937 -0.3934 0.47229 -0.3845 -0.29726 -0.38081 -0.73318 0.057635 -0.15905 0.1829 -0.16749 0.37785 0.5938 0.30964 -0.182 0.47881 0.30459 -0.38074 6.3643E-4 -0.21429 -0.1288 0.40487 -0.17969 0.0083262 0.40646 -0.2078 -0.3145 0.49585 0.094695 0.17589 0.27437 0.21843 0.13897 0.96176 -0.49994 0.40137 0.28471 -0.15014 -0.54591 0.26493 -0.81599 0.41221 -0.21253 -0.1303 -0.16034 0.18459 0.80979 -0.36354 0.28552 -0.88923 0.043523 -0.21462 -0.094903 -0.028414 -0.76739 0.20376 0.32699 0.081614 0.23339 0.050686 -0.62142 0.051325 -0.14665 0.30608 -0.16338 0.12053 0.13225 -0.47706 -0.050492 0.030171 -0.061909 -0.021496 1.0587 -0.45843 0.11952 -0.051638 0.36648 0.04036 0.057331 0.49261 -0.23515 -0.14867 -0.3113 -0.6625 0.37274 -0.52354
food -0.3449 0.15592 -0.14129 -0.055486 0.48783 -0.0026279 -0.14367 -0.34195 0.25987 0.15616 -0.5324 0.91295 -0.37761 -0.0046062 0.11003 -0.56423 0.037002 -0.34705 -0.68676 -0.26562 -0.201 -0.17938 0.308 0.49307 0.36452 -0.23726 -0.12107 -0.12014 -0.24068 0.45762 -0.10649 0.44093 0.051409 0.51541 0.029829 -0.14096 0.54845 0.075367 -0.32748 -0.39652 0.29116 -0.19153 0.38179 -0.29669 0.17161 0.14613 0.36519 0.27963 -0.22734 -0.40216 0.18698 -0.072713 -0.18487 0.15061 -0.09228 0.38624 -0.39574 -0.13985 0.40032 0.58225 0.4812 0.23976 0.3609 -0.51389 0.422 -0.36917 -0.77089 -0.44315 -0.12981 0.061108 0.40404 0.055128 -0.11694 0.14266 -0.31489 0.63247 -0.046523 0.16749 0.020423 0.31816 0.4627 0.10022 0.31627 0.11547 0.4969 0.28371 -0.38909 0.2882 -0.43012 0.10535 -0.41635 -0.52407 -0.25383 0.41984 0.33151 -0.0090536 0.059353 -0.16616 -0.10483 -0.2563
precedent 0.18649 0.24128 0.16309 -0.27682 0.04804 0.20255 -0.077206 -0.28836 0.39182 -0.23677 -0.31507 6.5622E-4 0.30457 0.0040153 0.27225 -0.18445 -0.36653 -0.44406 -0.34841 -0.075234 -0.16726 0.45284 -0.34615 -0.13313 0.071708 0.13379 0.53273 -0.55792 -0.27401 -0.13475 0.24162 -0.30661 -0.22043 -0.1554 -0.13236 -0.29297 -0.22518 -0.23279 0.16602 -0.078928 0.013197 0.17046 -0.16231 -0.081818 -0.092074 -0.017706 0.39524 0.39425 0.076836 0.23226 0.032372 -0.068361 -0.29985 0.30631 -0.14078 0.17292 -0.13683 -0.26579 -0.029164 -0.024695 0.61 -0.31842 0.16845 0.32165 0.30502 -0.0074486 -0.48126 -0.10963 -0.70748 -0.23081 -0.075003 0.39221 0.53294 -0.054671 0.24507 0.64437 0.0040344 0.31626 0.16023 -0.087631 -0.31704 0.22605 0.073907 0.12365 -0.09039 0.13561 0.32897 0.20223 0.079146 0.19544 0.029003 -0.62936 0.40407 -0.32719 0.59628 -0.57832 0.25597 -0.46018 0.48149 0.10329
series -0.67471 -0.041123 0.22599 0.22971 -0.31453 -0.12112 -0.1931 -0.49336 -0.23594 -0.58146 0.09083 -0.0079914 -0.27947 -0.021028 0.74993 -0.48712 -0.17399 -0.675 -0.11759 0.071873 -0.79931 0.015612 -0.48936 0.37653 -0.24353 -0.25274 0.21653 -0.3503 -0.040496 0.41671 0.006235 0.23027 -0.0011973 -0.53312 -0.03912 -0.43525 -0.27231 0.018754 -0.16845 -0.058676 0.37387 0.37885 -0.016118 -0.080218 0.18091 -0.093636 0.43395 0.28059 0.20462 0.037692 0.37054 -0.32919 -0.066868 0.12495 -0.34147 0.41244 0.11039 0.057967 -0.026709 -0.2929 0.086474 -0.46637 -0.039599 0.15178 0.30487 -0.35993 -0.092688 0.31311 -0.049883 -0.77199 -0.26455 0.36573 0.37096 -0.12782 -0.9271 0.076589 -0.27419 0.046885 -0.20675 -0.26073 -0.25432 0.24319 -0.047873 0.15567 -0.11726 -0.14417 0.4547 0.090656 -0.087618 -0.42098 0.17511 -0.21875 -0.19098 -0.015232 0.14083 -0.012801 0.0028431 -0.45046 0.10204 -0.10409
kilometer -0.18843 -0.60756 0.17757 0.66151 0.31633 -0.67526 -0.56898 -0.045092 0.3093 -0.47265 -0.65758 0.010855 -0.21968 0.38952 -0.28515 -0.2959 0.0091829 -0.34231 0.33073 -0.89143 0.009762 -0.19389 -0.97441 -0.7654 -0.26509 -0.42443 0.78906 0.45691 -0.15727 0.60377 -0.29875 0.56525 -0.51864 0.61647 -1.0026 -0.26687 0.17888 0.25257 0.33992 0.32396 -0.76864 -0.67186 0.092468 -0.2958 0.76616 -0.04423 0.28208 0.22314 -0.13575 -0.81934 0.27392 -0.50458 0.45266 0.22044 -0.22788 -0.19238 -0.89849 0.30261 0.55428 -0.10575 0.54333 1.0293 0.53772 -0.70286 0.72971 -0.35966 -0.13882 1.0341 0.75274 0.16106 -0.083492 0.10307 0.021677 -0.25001 -0.33975 -0.19808 0.72481 0.043506 0.37733 -0.062926 -0.13073 0.44407 -0.033949 -0.78872 -0.09116 -0.65594 0.20023 1.103 0.68469 0.52751 0.050763 -0.38132 0.17217 -0.39769 0.42089 -0.09124 -0.23385 0.072461 0.30474 0.3321
grocery -0.063222 -0.11852 0.36886 0.31728 -0.20623 0.23426 -0.0095575 0.14632 -0.031113 0.070896 -0.25579 0.5093 -0.73727 0.21335 -0.37882 -0.82381 -0.090492 -0.24194 -0.68375 -0.38037 -0.17914 -0.36709 0.2639 0.40398 0.084443 -0.47131 0.14633 0.3845 -0.018275 0.21902 -0.072195 0.36515 0.33166 0.24203 -0.022524 -0.27826 0.69691 0.018626 0.096451 -0.67634 -0.0050242 0.34199 0.51758 -0.41893 0.42379 0.137 0.063973 0.63745 -0.48136 -0.60842 -0.0053467 0.17929 -0.6812 0.39493 -0.14749 0.62722 -0.5785 -0.2102 -0.035049 0.86813 0.65125 -0.18451 0.60047 -0.12553 0.49168 -0.284 -0.18772 0.014018 0.36354 -0.090444 0.60208 -0.22401 -0.1056 0.17557 -0.51156 0.21634 0.30622 0.40768 0.03413 0.45708 0.21782 -0.21712 0.66117 0.59633 0.19958 0.56097 -0.6986 0.24665 -0.20178 0.034851 -0.40938 0.088622 -0.38169 -0.018311 0.15123 0.045368 -0.4303 0.25037 0.16609 -0.13943
wizard -0.50069 0.16434 0.30629 0.14831 0.24166 0.31123 -0.14591 0.14311 -0.29363 -0.2841 0.42081 0.15346 0.38161 0.44418 0.042518 -0.71453 -0.20944 -0.4406 -0.075883 0.10472 -0.19108 -0.36414 -0.17955 -0.29274 -0.067049 -0.41656 0.41625 -0.013803 0.44312 0.76798 0.40794 -0.61404 -0.11712 -0.28902 0.0052694 -0.012537 -0.20734 0.59826 -0.11284 -0.33819 -0.14242 0.28515 -0.050322 -0.29685 0.061406 -0.11353 -0.075552 0.30083 -0.36031 0.16041 0.46525 -0.62305 -0.14762 0.21857 0.45135 0.022528 0.27056 -0.33967 0.034781 0.012844 0.0039839 -0.25595 0.24872 0.033511 0.84157 0.41149 -0.31074 -0.43833 -0.42702 -0.16171 -0.050627 0.21182 -0.10542 -0.054459 -0.74058 0.13266 0.0050668 -0.11657 -0.61863 -0.42473 0.17434 -0.1253 0.053364 -0.039919 -0.27037 0.23685 0.043644 -0.2232 0.11828 0.11411 -0.082853 -0.69884 0.40961 0.26193 0.073315 -0.26047 -0.92039 -0.056683 0.57155 0.097472
information -0.096754 -0.048019 0.098866 -0.32297 -0.12585 0.27463 0.025357 0.40432 0.24051 -0.31491 -0.48202 0.23306 -0.73213 -0.16818 0.18716 -0.40074 0.052461 -0.80358 0.04997 0.036454 0.3677 -0.019797 0.59523 0.31565 -0.14097 -0.28415 0.65527 0.1816 0.047695 0.055054 -0.34305 0.10198 -0.18928 0.51362 -0.40641 -0.25058 0.60606 0.17018 -0.25296 -0.16675 -0.19737 0.16319 0.18629 0.5926 0.2061 -0.53246 0.33619 0.46225 -0.04387 0.19752 -0.058985 -0.17535 0.34757 0.71466 -0.31665 0.20988 -0.29144 -0.38879 -0.094588 -0.10089 0.96412 0.097469 0.20385 0.31056 0.2101 0.0064515 -0.091293 -0.45119 -0.071363 -0.39314 -0.074311 0.09051 -0.42737 0.34188 -0.25732 -0.35192 -0.6743 0.055606 0.1691 0.43931 -0.18369 -0.54817 0.47476 -0.18305 0.16161 -0.036707 -0.13427 0.033875 0.96822 0.14506 0.08654 -0.7602 0.30157 0.17743 0.20726 -0.074756 0.21656 -0.31416 0.26474 -0.18673
Israel 0.11456 0.066263 -0.40856 0.13134 0.70338 -0.31306 0.099124 -0.33617 0.42795 0.24079 -0.93357 0.18658 0.79938 -0.24159 0.16428 -0.094622 -0.25493 -0.69964 -0.33423 -0.49608 -0.10146 0.17307 0.32927 -0.15388 -0.2051 0.064443 0.62347 0.36953 -0.17841 -0.050512 0.21645 -0.28668 -0.51964 0.13448 0.025089 -0.97406 -0.33552 0.23418 0.10816 -0.16407 -0.26013 0.36596 0.087696 0.38327 0.32548 0.67172 0.14207 1.1246 -0.11235 -0.013561 -0.69525 -0.12335 -0.14933 0.47891 -0.21032 -0.0049992 0.30159 0.92366 0.061658 -0.47233 0.56037 -0.62359 0.0097432 0.035951 -0.13296 -0.23311 -0.27381 0.65365 -0.52478 -0.77925 -0.18158 0.44657 0.35355 0.51815 -0.51069 -0.33382 -0.08381 0.52048 0.13339 0.5371 -0.15794 0.14891 0.0014698 0.22007 0.16688 0.63865 0.12466 0.38516 -0.32979 -0.63618 -0.25761 -0.13098 0.49706 0.19023 -0.073138 0.57793 0.066403 -0.51152 0.18586 -0.05146
brandy 0.19266 -0.26693 0.40698 0.35707 0.26332 0.070897 -0.1173 0.05769 0.14373 -0.031745 -0.090677 0.75344 -0.13558 0.25981 -0.090535 -0.56569 0.067265 -0.16926 -0.35822 -0.17751 -0.090508 -0.12578 -0.3636 -0.064548 -0.058107 -0.38255 0.22826 0.43898 -0.13439 0.41085 0.11782 -0.02951 -0.19691 -0.044841 0.18341 -0.24076 0.21854 -0.13954 0.13049 -0.064747 -0.06982 0.083628 0.30868 -0.25991 -0.1257 -0.035549 0.09632 0.3545 -0.19972 -0.3834 0.067311 0.39687 0.069165 0.067705 -0.12953 0.33288 0.2023 -0.38764 -0.22295 0.77066 0.76911 0.0065564 0.34311 0.58846 0.30724 -0.37526 -0.25348 -0.15499 0.080418 -0.03773 0.26913 0.1323 0.22129 -0.077009 -0.25102 0.32758 0.079278 0.1425 -0.057386 0.13234 0.49213 -0.34778 0.23515 0.61851 0.47081 0.3076 0.17128 -0.042244 0.20521 -0.3371 -0.55386 -0.3893 0.063701 0.16717 -0.21029 -0.25812 -0.2704 0.23037 0.10577 0.21762
interview -0.57522 -0.2676 0.43288 -0.14986 0.23138 0.16298 0.29001 0.079581 0.029568 0.087 -0.66591 -0.29825 -0.39092 0.39113 0.76693 -0.49658 0.096902 -0.4439 0.014164 -0.40355 0.092321 -0.2276 -0.25638 -0.098184 -0.19671 0.0063687 0.53221 0.24807 -0.33844 0.38949 0.12645 0.13897 -0.29766 1.978E-4 -1.1237 -0.10302 -0.51117 0.25495 -0.0094223 -0.3204 -0.0069186 0.49558 0.0062772 -0.097235 -0.34927 -0.30568 0.32989 -0.13298 0.42285 -0.063987 0.40262 -0.42562 -0.29754 0.11326 -0.22232 0.11755 -0.15885 0.39617 -0.62659 0.12016 0.26121 -0.41868 0.17865 0.24167 -0.19568 -0.44858 -0.15374 0.34441 -0.22649 -0.19464 0.33794 0.1832 0.34544 0.26741 0.1376 -0.44101 0.054582 -0.18195 0.060454 -0.016226 -0.16637 -0.20371 -0.12273 0.046826 0.09253 0.13292 0.11772 -0.069014 0.30066 -0.21403 0.32121 -0.4141 0.11947 0.56288 -0.047874 -0.19965 -0.11058 0.15382 0.78364 -0.88125
prominence -0.29203 -0.10796 0.030874 -0.20763 0.20033 0.35342 -0.085485 -0.15244 -0.17211 -0.19361 -0.3847 -0.076958 -0.16439 0.041568 0.30601 0.030247 -0.10072 -0.35543 0.094332 -0.47546 -0.30828 -0.2804 -0.45572 0.16009 -0.13756 -0.20744 0.49116 0.31587 0.50156 0.25696 -0.23102 -0.28248 0.262 -0.18752 -0.012622 -0.0020718 -0.20501 -0.30172 0.17804 -0.66517 -0.32479 0.39683 0.066131 -0.23021 -0.32109 -0.18636 0.0077583 0.20765 -0.24713 0.13203 0.30966 0.094333 -0.15074 0.35389 0.29059 -0.17704 0.13358 -0.35297 0.32983 0.10188 0.34647 0.1494 0.2131 -0.39052 0.38238 -0.23633 -0.012673 -0.21073 -0.11061 -0.49716 0.034464 0.36368 0.43594 -0.26857 0.037163 0.21578 0.022231 0.4654 -0.31705 0.17246 -0.18635 -0.21861 0.22638 0.26767 -0.049523 0.11196 -0.17492 0.23851 -0.028307 -0.716 0.41734 -0.39179 0.20059 0.34871 0.21384 -0.022782 0.024329 -0.38244 0.18914 -0.26648
bed -0.022846 -0.20753 0.57665 0.33345 -0.19238 -0.27638 0.11634 -0.18757 0.33382 0.63521 -0.43019 0.0093207 0.042324 -0.23489 -0.44105 -0.82888 0.45211 -0.52943 -0.60901 -0.35776 0.033473 -0.35673 0.044009 0.25963 0.3196 -0.056434 -0.26051 0.095685 0.17648 0.75778 0.292 0.089001 0.52297 0.031903 -0.78188 0.34081 0.39289 0.53551 0.030748 -0.3764 0.16815 0.261 0.33564 -0.29155 -0.20502 0.31524 -0.26127 0.21307 0.44307 -0.19842 0.11205 -0.22325 0.14729 0.36444 -0.44229 -0.051674 -0.30081 0.106 0.085629 0.2201 0.51386 0.25141 0.17447 -0.21328 0.28352 -0.52314 -0.51907 0.026267 -0.14956 0.11098 0.27952 0.23365 0.12436 0.32063 -0.36382 0.22503 0.22594 0.33884 -0.0042416 0.15306 0.56523 0.068023 0.20592 -0.10284 -0.3878 0.016594 0.37059 -0.32587 0.020878 -0.080283 0.064215 -0.24666 0.31975 0.16329 -0.30087 0.11644 -0.58943 0.018462 0.6871 -0.33345
furnace -0.19939 -0.21731 0.4861 0.17648 0.091099 -0.49134 -0.82043 -0.58742 0.2663 0.46629 -0.64279 0.22451 -0.069588 -0.12605 0.020681 -0.58567 0.039377 -0.45407 -0.76789 -0.63856 0.06119 -0.17964 0.27789 0.058675 0.17404 -0.34174 -0.099855 0.13685 0.29026 0.43727 0.21434 -8.5499E-5 -0.44722 0.098293 -0.066867 0.24008 0.59008 -0.47672 0.09738 -0.3575 0.13002 -0.32037 0.44735 -0.41732 0.19313 0.2668 0.052043 0.42355 -0.068604 -0.57462 0.096519 0.023916 0.23126 -0.15974 -0.24213 0.19654 0.48199 -0.049118 0.13047 -0.19584 0.63013 0.18673 0.23023 -0.027007 -0.40458 -0.4255 -0.36418 -0.17927 0.31118 -0.32196 -0.091304 0.26531 -0.24327 -0.22569 -0.59285 0.35876 -0.1466 0.50779 0.13451 -0.186 0.20265 0.37211 0.31211 0.07667 0.16854 0.19814 0.051563 0.24026 0.36561 0.43346 -0.25053 -0.56006 -0.11103 -0.19283 0.23881 0.25003 -0.2406 0.0056537 0.25218 0.2365
evidence -0.40222 -0.13164 0.031752 -0.13756 0.12917 -0.19538 0.0436 -0.23279 0.33057 0.21524 -0.45299 -0.12396 -0.24114 0.007282 0.26421 -0.14782 -0.74948 -0.51059 -0.14167 -0.33517 0.099171 -0.30098 0.18242 -0.17276 0.23751 -0.37811 0.67406 -0.083389 -0.46138 -0.0881 0.26217 -0.18155 -0.29797 -0.39114 0.1732 -0.12449 0.3998 -0.14942 -0.27165 -0.56693 0.14629 -0.2252 -0.19911 0.32608 0.10509 -0.32031 0.057603 0.078363 -0.21818 0.2884 -0.041668 -0.13272 -0.023062 1.0999 -0.42521 -0.0094186 -0.65932 -0.25691 0.32517 0.36358 0.43143 0.25412 0.15608 -0.2163 0.1199 -0.40393 -0.056104 -0.36968 -0.96912 -0.16572 0.20625 0.29987 0.31384 0.15612 -0.059883 0.08636 -0.77588 0.17005 0.33723 0.34757 -0.029314 0.097125 0.18484 -0.37068 -0.15042 0.20622 0.40327 -0.052539 0.41551 -0.061376 0.05009 -0.70121 0.050766 0.46708 0.5701 -0.38545 -0.20425 -0.09213 0.29304 -0.2123
sprint -0.33681 -0.17519 0.17136 0.19078 0.042937 -0.88501 -0.13142 -0.52555 0.19485 -0.067303 -0.65669 -0.24432 0.016006 0.25767 0.26725 0.037414 0.11794 -0.33483 0.23468 0.024081 -0.20125 -0.4929 -0.86057 -0.096495 -0.36094 -0.6058 0.36053 -0.1392 -0.49732 0.87971 -0.29128 -0.047802 0.033169 -0.68919 -0.088179 0.045928 -0.31838 -0.42031 -0.14555 -0.074397 -1.008 -0.48535 -0.24822 -0.27053 -0.077727 -0.79472 0.32097 0.020043 -0.37804 0.18967 0.46982 0.057052 -0.087255 -0.17018 0.076436 0.090223 -0.017737 -0.34474 -0.2451 0.16752 0.14111 0.46814 0.47614 0.0025239 -0.05887 -0.23057 -0.073502 0.32636 0.14455 0.26894 0.11426 0.13926 0.52456 0.24888 -0.41215 -0.08343 0.62154 0.31646 -0.0047538 0.090571 0.040019 -0.0040221 0.56886 0.37344 -0.0035063 0.35818 -0.2145 0.39687 0.35214 0.24008 -0.32658 -0.60755 0.04671 -0.2791 0.089348 -1.1788 -0.52265 -0.19867 0.051962 -0.012522
emergency -0.67467 0.31438 0.30494 -0.1751 0.041661 0.13458 0.15369 -0.24964 0.43126 0.29657 -0.67311 0.085299 -0.14424 0.25669 0.29638 -0.39399 0.30148 -0.53569 -0.93839 0.037411 -0.067613 0.1906 0.083244 0.0084725 0.48672 0.10251 0.36734 -0.074027 0.18574 0.65682 -0.21532 0.51373 0.014809 0.41006 -0.78463 -0.33584 0.57538 0.5215 -0.23143 0.26715 0.31945 -0.063256 0.93177 0.39123 -0.19008 0.08231 0.24164 0.39348 0.44268 0.22536 0.036129 -0.46277 -0.52459 -0.16189 -0.49878 -0.39877 -0.06511 0.085699 0.30719 0.32737 0.6256 0.22873 -0.25194 0.31999 0.057237 0.2359 -0.18057 0.50519 -0.24087 -0.28176 0.20915 -0.23475 -0.054499 -0.3219 0.1805 0.62688 0.18893 0.67599 0.080431 0.55437 -0.18043 0.19624 -0.21744 0.12794 -0.13037 -0.23343 -0.2614 -0.047701 -0.40985 0.44253 0.20197 -0.3158 0.46361 0.25459 0.45066 0.31744 0.19406 0.026264 0.058152 -0.10844
Jackson -0.83506 0.48572 -0.059194 -0.34246 -0.099245 0.035532 -0.25057 0.018748 0.32434 -0.069984 -0.27816 -0.020729 -0.3065 0.42961 -0.23135 -0.34206 0.37393 -0.4438 -0.68268 -0.22031 0.27224 0.47591 -0.56108 -0.56657 -0.33257 -0.59304 0.39975 0.3268 0.24059 0.46451 -0.13011 -0.12719 0.042324 -0.135 -0.14617 0.31201 0.44881 0.42046 -0.25987 -0.20487 -0.049986 0.48205 -0.31561 -0.23394 0.11231 -0.0018668 0.39488 0.44521 0.13823 0.76486 -0.0030962 -0.17544 0.12563 0.47894 0.30162 0.12527 -0.10193 -0.39153 0.13093 0.18087 -0.47856 0.076293 -0.34137 0.069867 0.37419 -0.4307 0.075098 0.37795 -0.29612 -1.078 0.56961 0.083833 0.86725 0.17358 -0.23587 0.36661 0.10153 0.082996 0.15977 0.26941 -0.013079 -0.26981 -0.22795 -0.28239 0.058644 0.01777 -0.41675 -0.36845 -0.3329 0.029929 -1.0472 -0.38278 0.13168 0.16403 -0.088873 -0.051973 -0.063885 -0.37458 0.072823 -0.19737
institution -0.45493 -0.15731 -0.12978 -0.23869 0.014448 0.36333 -0.048529 -0.035781 -0.012883 -0.17536 -0.32301 0.11367 0.29366 0.16051 -0.10799 0.036519 -0.086498 -0.27007 0.10988 -0.097675 -0.14469 0.26385 0.025814 -0.53206 -0.23875 -0.16017 0.62918 -0.16633 -0.41706 0.56993 0.3317 -0.15095 0.034148 0.20921 -0.64999 -0.098933 0.34665 -0.1681 0.22259 -0.13188 0.19445 0.68839 0.36167 -0.24808 0.06572 -0.036962 -0.13137 0.37014 -0.10924 0.44909 0.29948 -0.38772 -0.45829 0.31881 -0.0089666 -0.1388 -0.054291 0.065507 -0.1799 0.090472 0.83051 -0.0179 0.28406 0.064863 0.2118 0.48581 -2.2324E-5 -0.25921 -0.2539 0.22618 -0.077392 -0.19515 0.15102 -0.091376 0.077708 0.71393 -0.15523 0.4781 -0.077777 -0.037975 -0.045767 0.54418 0.19586 0.094491 0.047549 0.28274 -0.22269 0.054322 -0.14359 0.095465 -0.17531 -0.50079 0.46703 0.037774 -0.1975 0.17196 0.44649 -0.51181 0.40347 0.32028
bird -0.28321 -0.55999 0.61008 0.21819 0.45346 -0.44319 0.10087 -0.12137 0.0024443 0.11451 -0.6516 0.58867 0.48325 0.21644 0.0022521 -0.48411 -0.27187 -0.43981 0.12468 -0.19908 -0.69945 -1.0139 0.1216 -0.22084 -0.13165 0.62501 0.11276 -0.13442 -0.0023929 0.43079 -0.51884 0.49882 -0.44537 -0.52195 0.15744 -0.062054 0.17729 0.24329 -0.25598 -0.1157 0.02769 0.57351 0.50125 0.48946 0.20072 0.11608 0.065518 0.32372 0.054416 -0.071626 -0.19833 -9.9424E-4 -0.078978 0.26119 -0.12621 -0.015203 0.16611 -0.3551 0.60786 0.21835 0.36226 -0.13843 0.82136 0.16872 0.48734 -0.63107 0.0047246 -0.21496 -0.088191 0.17643 -0.50732 0.404 0.078232 -0.12477 -0.73773 0.15535 0.43982 0.49943 0.53625 0.28429 0.43836 -0.50862 0.34629 -0.27559 -1.5992E-4 -0.36957 0.037886 -0.26778 0.44688 0.616 -0.19735 -0.45174 0.27532 0.29249 -0.10184 0.011551 -0.61337 0.14371 0.1545 -0.36173
Brazil -0.26857 0.080632 -0.50781 -0.42744 0.37823 -0.044753 -0.33351 0.0095777 -0.63839 -0.33012 -0.27303 -0.20055 -0.049482 0.24303 0.34538 0.15295 0.29861 -0.27972 -0.57171 -0.23893 -0.45162 0.68708 -0.32732 -0.21733 0.23469 -0.12168 0.19076 0.038722 -0.28614 0.19995 -0.249 0.74438 0.27948 -0.21348 -0.14025 0.118 -0.28225 0.33809 0.11451 -0.34638 -0.96862 -0.15268 0.31402 0.16906 -0.49364 -0.12214 0.11093 0.40431 -0.24538 -0.063687 0.28583 0.043396 -0.054887 -0.022925 -0.23552 -0.32711 0.053594 0.52491 -0.21634 0.30664 0.60127 0.37993 0.1632 -0.029859 -0.37873 -0.34392 -0.47116 -0.16869 -0.093861 -0.15365 -0.085639 0.43171 0.1787 0.12552 -0.36373 0.037234 0.56665 0.452 0.41216 0.57793 -0.32146 -0.34868 -0.29826 -0.28013 -0.12006 0.63957 -0.093352 0.87148 0.057652 -0.38541 -0.10354 -0.81345 0.44681 0.094265 -0.048407 -0.0061362 -0.52972 0.055669 0.1471 -0.14569
warning -0.31686 0.018254 0.39484 0.50916 -0.012077 0.092174 -0.17841 -0.56138 0.179 0.16942 -0.44921 -0.018674 0.29297 0.25357 0.62656 -0.95428 -0.21724 -0.66741 -0.30852 -0.036098 0.1972 0.45304 0.26348 0.19534 0.01245 0.25485 0.58561 0.041379 0.033505 -0.11762 -0.062478 0.057583 -0.68422 0.17358 0.049676 -0.56485 0.20304 0.05966 -0.055354 -0.039343 0.01724 0.31645 0.32577 0.49833 -0.29224 -0.14643 0.33398 -0.15352 -0.23643 0.33215 0.53778 -0.44172 -0.040209 0.094343 -0.38502 0.25182 -0.16641 -0.082515 0.75073 -0.14922 0.39399 -0.37032 0.49568 0.19777 0.31698 -0.19158 -0.042456 -0.29647 -0.39294 0.060572 -0.60217 0.085579 -0.11519 -0.33403 0.34457 0.10108 0.16119 0.11275 0.095456 0.31376 0.36309 -0.13487 -0.33452 0.38974 0.24638 -0.016134 -0.27271 0.38819 0.14886 -0.0097453 0.017183 0.041058 0.19971 -0.30337 0.2003 -0.51985 0.013898 0.22417 0.58383 -0.024998
implement 0.16319 -0.22043 0.30596 -0.22721 0.2002 0.22776 -0.21418 -0.19923 0.60473 0.012369 -0.21405 0.10385 -0.21481 -0.28841 0.61516 -0.21278 -0.42946 -0.15889 -0.13288 -0.06382 0.53201 -0.0062128 -0.080692 -0.056517 0.81059 0.014938 0.85754 -0.4925 -0.21215 0.4433 0.11129 0.71429 -0.047976 0.30787 -0.52412 -0.29866 -0.40482 0.025741 -0.0057764 0.1008 0.090257 -0.072673 0.43377 -0.20227 0.57524 0.1727 0.28681 0.42957 -0.3715 0.083719 0.21811 -0.46881 -0.48341 0.22582 -0.15349 0.27565 -0.073665 -0.47002 -0.10644 -0.22389 0.59073 -0.18641 -0.46535 0.46071 -0.24196 0.37969 -0.42538 0.011536 -0.40526 -0.30225 -0.27087 -0.1153 0.095798 -0.11593 0.036542 0.38693 0.28452 0.52858 -0.087265 0.34971 -0.072154 0.35583 -0.063646 0.3146 -0.36555 -0.10598 -0.014903 0.20604 0.52902 -0.16378 -0.34224 -0.30828 0.0088898 -0.041422 -0.074953 -0.25571 0.39144 -0.12164 0.13695 -0.03389
train -0.3444 -0.63585 0.7787 0.13833 0.049484 -0.42428 -0.52344 -0.34941 0.13203 -0.30296 -0.57925 -0.011228 -0.29378 -0.25782 0.54 -0.13383 0.20476 -0.17543 -0.48798 -0.16757 -0.20528 -0.013012 0.29279 0.46846 0.12383 0.1648 0.46345 0.40715 0.14469 0.52026 -0.040282 0.052902 0.39351 -0.45018 -0.65859 -0.2587 0.46831 0.52947 -0.54359 0.38356 -0.094986 -0.07061 0.48893 -0.082539 0.54648 -0.043607 0.3222 0.20853 -0.85338 0.17878 -0.2062 0.14108 -0.15329 -0.066889 0.033767 -0.16629 0.0091421 0.082281 -0.35373 0.34301 0.58513 0.07688 0.61118 -0.16352 0.12084 -0.24207 -0.12571 0.42136 0.22204 0.20699 -0.12217 -0.31142 0.32864 0.17094 -0.021132 0.19892 0.14902 -0.058249 -0.23061 -0.091996 0.023089 0.58077 0.25956 -0.056458 -0.20476 -0.35208 -0.6539 0.48849 0.20035 0.001853 0.19978 0.034135 0.34474 0.20786 -0.077734 -0.42042 -0.48479 -0.040413 0.5313 0.027747
area -0.34781 -0.25857 0.64752 0.025876 -0.13585 -0.031833 0.0038196 -0.26423 -0.081538 -0.02324 -0.21478 0.24089 -0.28731 -0.018895 -0.1093 -0.15344 -0.43646 -0.38286 -0.40377 -0.22774 -0.42056 -0.28228 0.064224 -0.16739 -0.17248 -0.37036 0.27941 -0.016885 0.0067013 0.34254 -0.028113 0.53606 0.0011299 -0.14531 -0.95986 0.1588 0.38423 0.46181 0.047812 0.065653 -0.22701 0.26798 0.094007 0.097997 0.13367 0.3247 -0.02729 0.31875 -0.30968 -0.26247 -0.10319 0.077296 -0.049595 0.50357 -0.63506 -0.204 -0.39744 0.10947 0.14079 -0.12202 0.58394 0.099003 0.31351 -0.077945 0.082379 -0.20505 0.091835 -0.093589 -0.13948 -0.10241 -0.19369 0.4289 0.0061259 -0.25924 0.32613 0.22714 -0.05551 0.34332 0.27356 -0.050562 0.072317 0.011706 0.17772 -0.26467 0.086952 -0.27052 -0.26324 0.1658 0.25065 -0.27373 -0.45617 -0.09278 0.19147 -0.46122 0.42741 -0.053466 -0.041729 -0.11658 0.030578 0.24146
image 0.3371 -0.074898 0.30974 0.0058115 0.012551 -0.19615 0.11385 -0.016115 -0.36196 0.14393 -0.59745 -0.033636 0.16131 0.35916 0.29918 -0.40885 -0.34306 -0.35845 -0.0020408 -0.22458 -0.28066 -0.18534 0.007924 -0.15279 -0.26623 -0.45012 0.87759 0.54258 0.084637 0.4859 0.34434 0.1101 -0.43746 0.27822 -0.28369 -0.27556 -0.32875 -0.29933 -0.30252 -0.16806 0.19876 0.28171 0.053991 -0.06983 -0.16505 -0.16879 0.29414 0.25054 -0.2704 0.11659 0.48964 0.13595 -0.25194 0.68196 0.09401 -0.034119 0.33495 -0.10066 -7.8698E-4 0.14275 0.40272 -0.10927 -0.049449 -0.02419 -0.0015301 -0.55551 -0.31198 -0.79787 -0.07369 0.23453 -0.067217 0.68064 0.10504 0.052207 -0.18704 0.37801 0.12202 0.050239 -0.17704 -0.17039 0.21224 -0.18423 0.0066028 0.40122 0.11617 -0.41259 0.37846 0.069015 0.56672 -0.11844 -0.16973 -0.1986 0.58497 0.31045 -0.049093 -0.1226 -0.16532 -0.065837 0.43 0.48586
murder -0.66978 -0.060853 0.45457 0.10976 -0.5431 0.13462 -0.57184 0.078448 0.48133 0.34569 -0.044659 0.31377 0.10729 0.15337 0.5621 -0.0086578 -0.50855 0.24523 0.11476 -0.24966 0.0093468 -0.28884 -0.23449 0.15059 -0.1824 -0.21707 1.0565 0.37562 -0.54968 0.45958 0.38061 -0.36788 0.023834 -0.29111 -0.85353 0.094272 0.45311 -0.14217 -0.33014 -0.54236 -0.0070312 0.21679 -0.61482 -0.24021 -0.06381 0.099192 0.09767 0.49168 -0.43721 0.80904 -0.58832 0.11872 -0.04859 0.19801 -0.28563 -0.0094103 -0.71607 0.29965 -0.37638 0.2493 1.0827 0.01098 0.29395 -0.21086 0.44943 0.18355 0.16571 0.32167 -0.025261 0.098426 0.57096 0.40215 0.54492 -0.43368 -0.79264 0.25434 -0.60747 0.46898 0.50345 0.18356 -0.30703 -0.052274 0.36216 0.23804 -0.60442 0.24573 0.75539 0.1783 0.33355 0.10399 -0.46131 -0.13443 0.30709 0.089371 0.16342 0.08928 -0.4527 0.46635 0.1492 -0.66856
journey 0.25543 -0.53795 0.1552 0.1883 -0.016094 -0.28724 -0.50032 -0.0037101 0.16954 -0.40865 -0.33743 0.1477 -0.32309 0.41961 0.48365 -0.33382 0.27442 -0.19864 0.010852 0.14667 -0.053676 -0.076772 -0.624 0.16996 -0.35087 0.31898 0.57831 0.78002 -0.01768 1.0021 -0.51795 0.11431 0.47267 -0.20173 -0.32968 0.058756 0.031756 -0.044736 -0.62322 0.24007 0.51174 0.09398 0.029181 -0.16169 0.66356 0.2027 0.49681 0.38412 -0.054197 -0.052056 0.29427 -0.11777 0.31257 0.1507 -0.21005 0.23258 -0.35211 0.23627 -0.39578 -0.080238 0.53404 0.23975 0.48574 0.089598 0.22067 -0.39467 -0.88277 0.35927 0.30291 0.18688 -0.035165 0.42606 0.31607 0.28284 -0.14659 -0.009155 0.27424 0.093528 0.12676 -0.38104 0.19155 0.47207 -0.012653 -0.026444 -0.30522 -0.14554 -0.46297 0.31761 0.52348 -0.020871 -0.45349 0.023703 0.3959 0.023093 0.60023 -0.21806 -0.43218 -0.11231 0.11012 -0.099367
minister 0.21224 -0.2253 0.083979 -0.079987 0.56725 -0.23443 0.31113 -0.25923 0.62092 0.16343 -0.12034 0.16062 -0.62209 0.22775 0.4664 0.26758 -0.15781 -0.0040751 -0.12484 -0.96012 -0.025393 -0.27598 -0.58815 -0.15998 -0.32879 -0.15668 0.24684 -0.076913 0.073574 0.049761 -0.037525 0.14976 0.04527 0.029793 -0.63942 -0.31683 -0.019603 0.29577 0.68608 -0.4241 0.11316 0.30123 0.066505 0.012857 -0.59939 0.17448 0.80956 0.19914 -0.2946 -0.049699 -0.1822 -0.59762 -0.055335 -0.011191 0.022515 -0.24385 0.065306 0.60771 0.33357 0.090592 0.73859 -0.24675 -0.01926 -0.14425 0.010753 0.18658 -0.45369 -0.59432 -0.57832 -0.69864 0.16258 0.38241 0.15371 -0.26733 -0.62918 -0.49197 -0.60234 1.1082 0.25817 0.63815 0.44335 0.32744 -0.42845 0.33867 -0.6194 -0.30173 -0.34969 0.041817 -0.16627 -0.091015 0.40042 -0.43089 0.57093 -0.37269 -0.25292 -0.24006 0.25733 -0.39539 0.24141 -0.67789
planet 0.24528 -0.041129 0.21128 -0.30144 0.11732 -0.2485 -0.19014 -0.10828 -0.39516 0.28006 -0.42716 0.15589 0.51503 -0.22531 0.034656 -0.3249 -0.48339 -0.51949 -0.19782 -0.21382 0.060312 -0.22319 -0.24956 -0.50023 -0.20567 -0.033383 0.52854 0.1581 -0.51179 0.53955 0.37682 0.43245 0.17761 -0.39251 0.46253 0.23139 0.10354 -0.10613 -0.21675 -0.22266 -0.084411 -0.2745 0.24001 -0.054281 0.2489 0.814 0.51883 0.38735 0.054585 0.1197 0.025367 -0.33438 -0.094811 0.55019 -0.050088 0.10354 0.20201 -0.25214 0.402 0.075986 0.50809 0.14516 0.806 -0.1639 0.24943 -0.041271 -0.69689 -0.65357 0.1236 0.19735 -0.24956 0.45483 0.51074 0.29421 -0.72852 0.25375 0.1618 0.12396 0.14267 -0.75291 0.28653 0.022856 -0.030343 -0.68997 -0.24456 0.15449 -0.081895 0.23789 0.21227 0.30897 -0.27413 -0.41873 1.0733 -0.22219 0.12526 0.087534 -0.5049 -0.27845 0.32611 -0.2185
article -0.36366 -0.12338 0.59899 -0.61595 0.17273 0.78994 -0.27565 -0.044612 -0.3658 0.17417 -0.19721 0.25055 -0.36941 0.5409 0.81367 -0.19887 -0.29409 -0.60656 0.018205 -0.50398 -0.24258 -0.24519 -0.082279 -0.5839 -0.12121 0.40575 0.44914 0.16517 0.33387 0.76484 1.1588 0.44035 -1.0648 0.001882 -0.23778 0.51443 -0.33192 -0.37469 -0.16298 -0.50073 -0.24846 0.34484 0.11447 -0.41929 -0.15385 -0.26293 -0.17497 0.4217 0.43457 0.64536 0.045083 -0.41244 -0.19312 -0.1007 -0.21882 -0.4741 -1.1438 -0.41549 -0.20168 -0.13067 0.84864 -0.67201 0.61871 0.3325 -0.080299 -0.19573 -0.10972 0.61799 0.49102 0.64091 -0.34135 0.38622 0.17786 0.1038 -0.6525 -0.97919 -0.32649 0.17915 0.37645 -0.27629 0.26538 0.65203 0.69526 0.35986 0.079405 0.35938 -0.014401 -0.023365 0.59114 -0.2908 0.29295 -0.15146 0.31501 0.29985 0.062434 -0.010055 0.11549 -0.82661 0.65393 -0.14942
anxiety -0.25274 0.026272 -0.15121 -0.024454 0.28491 -0.50835 -0.035602 -0.29807 0.022796 0.028788 -0.14069 0.26626 -0.27785 -0.076253 -0.37933 -0.27092 0.31763 -0.85197 -0.43935 -0.22259 -0.3353 0.061787 0.58169 0.29187 -6.1817E-4 0.61374 0.81996 0.32598 -0.51747 0.18631 0.10972 -0.11378 -0.15712 0.58675 -0.11672 -0.13892 -0.026235 -0.16041 -0.0032281 0.35665 0.38052 0.066019 0.1694 0.030551 -0.2673 0.31533 -0.57374 0.033222 -0.097721 0.67496 0.86578 -0.14601 -0.062779 0.49994 -0.11389 -0.11572 -0.43077 -0.099992 0.51623 0.085633 0.40894 0.15477 0.082687 -0.034332 0.50666 -0.7983 -0.27067 -0.34726 -0.10363 -0.4726 0.22362 0.24916 0.80326 -0.25433 0.16684 0.2029 -0.28749 0.30988 0.08226 0.4151 0.18022 0.03108 0.31139 0.21652 0.14998 0.27314 -0.31322 -0.31467 0.32634 -0.34701 0.34749 -0.4324 0.22812 0.42537 0.22881 -0.18869 -0.45589 -0.30955 0.25318 -0.3828
month -0.16653 0.12315 -0.030426 0.1562 0.027265 0.11286 -0.03201 0.083709 -0.0076679 -0.42454 -0.597 -0.40245 -0.26105 0.2252 0.29518 -0.995 -0.21588 -0.18529 0.055925 -0.55834 -0.17876 -0.40051 -0.52591 -0.018414 0.048305 -0.33193 0.38154 -0.022344 -0.051304 -0.28843 0.35733 0.70755 0.066223 -0.23182 -0.29581 -0.22934 0.22331 -0.021428 -0.29508 -0.057399 -0.23265 0.42762 -0.086436 -0.065776 0.14867 -0.1361 -0.15168 0.29684 0.43496 -0.030574 0.024742 -0.35736 -0.046747 -0.18369 -0.38265 0.1996 -0.23277 0.094895 0.2556 0.28226 0.16612 0.13259 0.33025 0.039542 0.096034 0.010503 -0.30271 0.051695 -0.22826 0.030942 -0.10166 0.35619 0.16051 -0.33474 0.15602 0.34856 -0.20081 0.031427 -0.0036008 0.70073 -0.1339 0.13603 -0.1052 0.3395 -0.094488 0.11281 -0.10779 0.64271 -0.27996 0.0091533 0.027546 0.070661 0.13258 -0.27992 -0.11942 -0.095864 -0.080668 -0.25785 0.39779 -0.37986
carnivore -0.26012 -0.058152 0.038964 -0.12166 0.054379 -0.052125 -0.30472 0.15447 -0.10226 -0.0071394 -0.16729 0.44426 0.17101 0.23167 -0.196 -0.41743 0.042181 -0.059459 -0.30538 -0.59862 -0.72271 -0.19972 -0.22122 0.071014 0.1963 0.22412 0.63728 -0.083476 -0.042409 0.32244 -0.098727 0.21404 -0.087998 -0.25552 0.44396 0.22679 0.3263 0.016585 -0.32021 -0.21993 -0.057665 0.26656 0.17545 -0.28567 0.3033 0.2374 0.079103 0.29437 -0.24688 0.031321 0.32658 -0.015121 -0.1564 0.46799 -0.056246 0.22021 -0.013297 -0.042673 0.27465 0.28715 0.61325 0.059699 0.39864 -0.22127 0.36747 -0.5274 -0.082981 -0.32063 -0.020094 -0.078583 0.0075688 0.24431 0.45911 0.18585 -0.38143 0.32894 0.14929 0.52609 0.43428 -0.01739 0.30771 -0.30593 0.16055 -0.12233 0.10877 0.11016 0.049832 0.048374 0.53635 -0.0417 -0.14711 -0.47687 0.30185 0.25002 0.14639 -0.0513 -0.56538 -4.5577E-4 0.32757 0.34772
party 0.6592 -0.063755 -0.097501 0.17805 -0.05929 0.087908 0.60781 0.11709 0.060341 0.09239 -0.3274 -0.22675 -0.11312 0.12633 -0.1441 -0.0195 0.038059 0.34827 -0.1922 -0.29036 -0.0051205 -0.11241 -0.23976 0.1691 -0.19595 -0.077143 0.63882 -0.046465 0.16296 0.26699 -0.15523 0.3071 -0.0079866 -0.54909 -0.80727 -0.33118 0.35641 -0.61025 -0.31584 -0.23855 -0.3072 0.051749 0.41461 -0.45669 -0.30428 0.37115 0.043054 0.52837 -0.43741 0.042401 0.10353 -0.3258 -0.55372 0.47013 -0.37831 -0.21933 0.049804 0.27626 0.1002 0.24879 0.44383 -0.3284 -0.39356 0.041443 0.22992 0.011356 -0.144 -0.10609 0.17241 -0.44105 0.25427 -0.043652 0.81217 0.17092 -0.58364 0.26902 -0.36649 0.63307 0.0069337 0.15765 0.55636 -0.052985 0.14052 0.32597 0.17796 -0.31294 -0.11432 0.2409 -0.15583 0.16035 -0.0025724 -0.46336 0.21682 -0.13461 -0.070302 -0.17058 0.24256 -0.45338 0.34447 -0.56857
production -0.3034 -0.36899 0.23459 -0.21871 0.37823 -0.15047 -0.8185 -0.39231 0.19408 -0.67411 -0.16168 0.19517 -0.085421 0.2143 -0.095758 -0.31199 -0.34516 -0.3313 -0.43783 -0.73027 -0.2501 -0.042931 -0.20898 0.39832 0.0021874 -0.32718 0.63819 -0.11927 -0.23399 0.75205 -0.15333 0.45841 0.26209 -0.035032 0.31265 0.18137 -0.14939 -0.0024763 -0.25585 -0.65781 -0.19063 -0.081891 -0.088665 -0.31639 -0.029536 -0.12474 -0.20126 0.26074 -0.19549 -0.39162 0.34315 0.44196 0.16354 0.18762 0.10633 0.30822 0.31771 0.094141 0.15482 0.2652 0.19264 -0.24526 -0.22966 0.033526 -0.17343 0.057775 -0.92476 0.29807 -0.19726 -0.3649 -0.44733 0.016772 -0.18708 -0.13309 -0.3677 -7.1861E-4 0.16296 -0.13375 -0.21758 0.23101 -0.22757 0.47083 0.17633 -0.25577 0.068284 0.3415 -0.48565 -0.027607 0.025726 -0.017552 -0.11899 -0.3309 -0.17251 -0.11906 0.41118 0.5451 -0.43729 0.26563 -0.0018456 -0.80143
importance 0.08867 -0.037225 0.11361 -0.16878 0.4678 0.18843 0.40483 -0.59252 -0.13992 -0.23333 -0.28299 0.2567 -0.28853 0.34723 0.058892 0.12861 -0.23171 -0.3763 0.10964 -0.13521 -0.15365 -0.123 -0.15247 -0.049742 -0.2715 0.030935 0.58905 0.097335 -0.3552 0.20799 -0.28231 -0.014628 0.028314 0.077599 -0.11371 -0.2277 -0.45341 -0.032281 -0.31807 -0.07972 0.32161 0.25618 0.18583 -0.11067 0.06961 -0.044218 -0.1768 0.27196 0.053529 0.11784 0.20332 -0.18206 -0.09142 0.41295 -0.17296 -0.01728 -0.91671 -0.25601 -0.13563 -0.26208 0.74257 -0.12209 0.14535 0.087752 -0.077491 -0.18484 -0.47139 -0.92141 -0.69551 -0.70658 -0.028603 0.13022 0.36286 -0.22914 -0.034523 0.18317 0.3231 0.33908 -0.069263 0.18891 -0.1707 0.29632 0.50285 -0.40051 0.3059 0.08681 -0.038214 0.11279 0.37566 -0.38839 0.19698 -0.45738 0.27031 0.27103 0.23204 -0.21959 0.049727 -0.29791 0.13556 0.083238
inmate -0.61883 -0.19019 0.15758 0.10939 -0.21937 -0.39663 -0.32705 -0.29489 1.0687 -0.083872 -0.14185 0.060644 0.40524 0.4012 -0.5766 -0.0027774 0.011791 -0.54513 -0.11189 -0.046007 -0.1356 -0.21585 0.019759 -0.32971 0.040028 -0.15874 0.81736 0.2156 -0.43665 0.92945 0.32215 -0.23436 -0.02266 0.007575 -0.62531 -0.045843 0.39477 -0.14283 -0.39154 -0.49588 -0.70298 0.36449 -0.9315 0.038835 0.31523 0.093986 0.10748 0.39424 0.36991 0.34799 -0.3381 -0.1401 -0.43804 -0.12949 -0.14658 0.57232 0.031053 -0.012271 0.39091 0.50149 0.72912 -0.36943 0.1609 -0.39176 0.18068 0.25564 0.26566 0.44748 -0.25629 0.037852 0.39896 0.33606 0.0070203 -0.20357 -0.3426 -0.10439 -0.24301 0.56444 0.43047 0.77878 -0.070832 -0.27766 0.31953 0.29341 -0.53047 -0.18879 -0.14906 -0.45847 -0.31938 0.1087 0.30181 0.21807 0.48057 -0.015339 -0.0061297 0.50716 -0.59806 -0.27125 0.37802 -0.12565
Harvard -0.72515 0.41154 -0.28022 0.18519 0.69189 0.72665 0.031287 -0.61431 0.37795 -0.040333 0.068359 -0.076624 -0.29653 0.15009 -0.2924 0.36011 0.0053886 -0.38561 0.31287 -0.34636 -0.12018 -0.12176 0.11287 -0.40616 0.20929 -0.044784 0.49194 0.37289 -0.4874 0.26492 0.033716 -0.6026 0.52766 0.16572 -0.36985 0.056355 -0.12985 -0.0063743 0.063075 -0.194 -0.44586 0.8403 0.42799 -0.11776 -0.0048691 -0.36771 0.43344 0.7052 0.27517 0.6793 0.28767 -0.83396 -0.4467 0.5465 0.42857 -0.3639 -0.18409 -0.41155 0.32484 0.59887 0.063722 -0.6726 0.65576 -0.23303 0.15629 0.2452 0.18835 0.49326 0.38426 0.3469 -0.3426 -0.16281 0.44724 -0.31522 -0.59564 -0.21034 -0.21188 0.13122 0.12594 -0.090017 -0.36495 0.3112 0.57957 -0.056776 0.1244 0.26434 -0.50355 -0.05909 -0.26805 -0.23957 0.086192 -0.55127 0.32676 -0.18482 0.11172 -0.16014 -0.46426 -0.46995 0.53857 0.012816
psychology -0.46422 -0.32551 -0.25291 -0.34555 0.32572 0.034697 0.063172 -0.10686 0.40521 -0.097414 -0.0079731 0.34152 -0.12034 -0.03818 -0.49881 0.2031 -0.17895 -0.85244 0.22452 0.054106 -0.018964 -0.36118 0.022696 -0.066001 -0.015071 -0.38715 0.63567 -0.093035 -0.62791 0.39854 0.12399 -0.94795 -0.17807 0.70816 -0.60485 0.25301 -0.1714 -0.0015843 -0.044682 -0.47407 0.033537 0.82002 0.15368 -0.35554 0.47761 0.19522 0.15641 0.14211 -0.0125 0.905 0.80002 -0.57777 -0.082518 0.42006 0.22706 0.40958 -0.44218 -0.15072 0.44009 0.61311 0.22062 -0.23198 0.41778 -0.43318 0.83655 -0.20818 -0.026967 0.26224 -0.51293 0.36935 0.15158 0.29986 0.49386 -0.35758 -0.17354 -0.021747 -0.20436 -0.090576 -0.021316 -0.16376 -0.20791 0.46452 0.068417 0.11956 0.18915 0.43815 -0.13325 -0.11696 0.30242 -0.46675 0.085104 -0.68685 0.20959 0.43373 0.44686 -0.26499 -0.51566 -0.62893 0.033724 0.15712
medal 0.23539 0.018992 -0.076715 0.18378 -0.18428 -0.50461 0.11379 -0.98098 0.094287 0.6644 -0.8437 -0.24071 -0.25444 0.45822 0.6551 0.47058 0.27866 -0.33639 -0.076741 -0.47882 0.45737 -0.088789 -1.1935 -0.12303 -0.17396 -0.38481 0.33659 0.24476 -0.16133 0.89291 -0.38192 -0.12138 -0.013817 -0.29507 0.01901 -0.0049846 -0.32642 -0.19046 -0.96411 0.19818 -0.67165 -0.11016 -0.57208 -0.090823 -0.4086 -0.76067 0.57216 0.59672 -0.059128 0.34948 1.086 0.24579 0.0019651 0.025293 0.78041 0.22135 -0.71133 -0.41546 0.35817 -0.20789 0.59023 0.1089 0.21764 -0.82916 -0.27178 -0.61594 0.45133 0.064463 -0.20761 0.23877 0.0494 -0.43582 0.28277 0.26087 -0.62968 0.54844 0.198 0.92544 0.38665 0.013099 0.033146 0.17263 0.91653 0.0047339 -0.018734 0.65994 -0.13917 0.58791 0.31897 0.73353 -0.6365 -0.77132 0.2083 -0.81707 -0.42537 -1.1174 -0.78362 -0.16199 -0.18159 0.14001
company -0.069283 -0.46426 0.46701 -0.027504 0.047349 0.3222 -0.11885 -0.043863 -0.082254 -0.66053 -0.22759 0.45703 -0.20927 0.34924 0.067294 -0.20321 -0.10792 -0.32436 -0.27482 -0.49463 0.29711 0.066774 0.14495 -0.32969 0.10012 -0.30831 0.31372 0.41617 -0.003064 0.30926 -0.31566 0.39667 -0.045224 -0.30518 0.10991 -0.10272 -0.026383 -0.066167 0.41509 -0.62338 -0.020332 0.20465 -0.1239 -0.17942 0.39358 -0.17185 0.30915 0.4819 -0.05171 0.14994 0.21456 -0.22168 -0.035817 0.0013739 0.017886 0.20723 0.18316 -0.0017623 0.04568 0.34313 0.5762 0.012793 -0.14833 0.49334 -0.2193 0.019016 0.0039382 -0.12599 0.085859 -0.39247 -0.13177 -0.18294 -0.19648 0.079622 -0.054891 0.20434 -0.038087 0.16347 -0.033905 0.23386 -0.054365 0.24109 0.27404 0.1551 0.20084 0.34628 -0.45885 0.090741 -0.053031 0.49661 -0.079141 -0.5272 -0.10768 -0.15364 -0.04336 0.32196 -0.22868 -0.20699 0.61431 -0.41359
live -0.32461 -0.011669 0.26495 0.17013 0.054336 -0.33616 -0.13784 0.74257 -0.08716 -0.19734 -0.34838 0.2301 0.25636 0.02211 -0.10722 -0.70977 -0.14969 -0.27081 -0.36406 -0.20271 0.019098 0.17874 -0.1138 0.0080432 0.068687 0.015429 0.57406 -0.0806 -0.26946 0.61471 -0.38071 0.087704 0.2967 -0.039834 -0.70808 0.34226 -0.29567 0.2078 -0.36898 -0.10618 -0.065727 0.38676 0.26634 -0.32142 0.38031 0.4433 0.57655 -0.069331 0.065286 -0.19379 0.06044 0.22865 0.17694 0.40534 -0.19797 0.26458 0.45225 0.38297 -0.32846 -0.44481 0.35655 -0.44491 0.50173 -0.056085 0.11616 -0.10714 0.022486 0.093755 -0.28675 -0.28466 0.028196 0.45258 0.29753 0.076623 -0.29146 0.11506 0.49428 -0.20073 0.36964 0.53844 0.16256 0.12222 0.45587 -0.51502 -0.032005 0.31684 0.077533 -0.1044 0.24602 0.078656 -0.02785 -0.10459 0.34193 0.068851 -0.50434 -0.099984 -0.060312 -0.31335 -0.087619 -0.50958
holy 0.34978 0.36341 -0.26211 0.38039 0.32392 0.45291 -0.28513 0.39668 0.29633 0.19921 -0.75541 0.01756 0.58338 0.54463 -0.051091 0.27876 -0.12198 -0.35398 -0.66758 -1.624 -0.50827 -0.25072 -0.10911 0.029037 0.14557 -0.23647 0.67165 0.068722 -0.33673 0.085728 0.2195 -0.45695 0.11508 -0.10188 -0.4223 -0.85829 0.050011 0.40222 -0.13394 0.22716 -0.20146 0.1608 0.11087 0.084211 0.31931 0.53854 0.4352 0.094673 0.013981 -0.26845 -0.49639 -0.23925 -0.064817 -0.053814 -0.18861 0.58754 -0.41441 0.65652 -0.11476 -0.84625 0.72213 -0.0017029 1.0493 -0.47619 0.3596 -0.3748 -0.23673 0.25276 0.21291 -0.16075 -0.22997 0.28391 0.20331 0.24684 -0.59498 0.4324 0.16554 0.33878 0.11832 0.10752 0.27218 0.16099 0.99209 0.35135 0.0087628 0.45071 -0.23301 0.046382 0.11596 -0.87383 -0.35058 -0.041275 0.52839 0.54769 0.35677 -0.85097 0.040431 0.25632 0.54772 0.084876
ticket 0.040225 0.025567 -0.21171 -0.53584 -0.41047 0.23622 -0.052665 -0.29633 -0.18596 0.086161 -0.84781 -0.37513 -0.075716 0.085417 -0.29493 -1.0286 0.18207 -0.47799 -0.19751 -0.25098 0.20345 0.25828 -0.1593 0.22333 -0.12255 -0.19636 0.57735 0.11746 0.31178 0.20592 -0.53284 0.39953 0.22445 0.045905 -0.46472 -0.52263 0.24507 -0.22645 -0.32106 -0.067642 -0.15319 -0.015037 -0.0017265 -0.18844 0.19798 0.39859 0.43642 1.1317 -0.27319 -0.23936 0.0055848 0.24365 -0.42122 0.31886 0.30395 -0.17509 -0.19695 -0.30592 -0.062258 0.5105 0.18498 -0.27716 0.27084 0.44717 0.2108 -0.7584 -0.16621 0.19057 0.31063 0.083736 0.58191 -0.39498 0.40692 0.45929 0.0050061 0.1021 -0.37718 -0.20423 -0.37546 0.40806 0.29817 -0.0864 0.076597 0.3062 0.66419 -0.20013 -0.49667 0.62719 0.16391 0.3289 0.0095385 0.20504 -0.094261 -0.2307 -0.2436 -0.54084 -0.3762 -0.31201 -0.082396 -0.26109
victory 0.15087 -0.27397 -0.12849 0.17514 0.19628 -0.077764 -0.019147 -0.67365 -0.17257 -0.0074269 -0.27867 -0.73009 -0.13101 0.047211 0.5939 -0.0282 0.46128 0.26498 -0.33554 0.33846 0.4105 -0.44561 -0.7808 0.066588 -0.028571 -0.4627 0.77942 -0.40771 0.081701 0.80972 -0.070565 -0.19545 0.089025 -0.40169 -0.27496 -0.45469 -0.10704 -0.10331 -0.25132 0.047549 0.17633 0.32705 -0.056089 -0.18541 -0.41714 -0.19938 0.34005 0.12069 0.25531 0.044922 0.84997 -0.043012 -0.25557 0.19156 -0.050778 0.24154 -0.38005 -0.061378 0.25637 -0.35352 0.59699 -0.080416 0.31485 0.41229 -0.17877 -0.47143 0.51295 0.24776 0.64175 -0.40103 0.15467 0.29905 0.66306 -0.034332 -0.23189 0.044336 0.027576 0.2416 0.54833 0.74154 0.24367 0.46053 0.19001 0.06313 0.707 -0.074833 0.60283 0.94053 0.1278 -0.23803 0.012762 -0.37196 0.49014 -0.32838 0.57846 -0.43344 0.15481 -0.32686 0.16838 0.11555
football -0.36439 -0.49062 0.16094 -0.44922 -0.026923 -0.331 0.065783 0.14373 -0.19222 0.52382 -0.47405 0.14461 0.25861 0.39148 -0.072421 -0.17016 -0.069923 -0.59348 -0.20794 -0.3911 -0.22628 0.19028 -0.25323 0.34795 -0.40536 -0.35813 -0.011812 -0.30839 -0.1473 0.54548 0.38076 -0.46144 0.65719 -0.19438 -0.18107 -0.41458 -0.19572 0.20653 -0.28645 0.11671 -0.66693 0.43826 -0.092173 -0.8428 -0.019456 -0.087318 0.48304 0.59683 -0.82271 0.52581 0.44608 -0.38483 -0.23087 0.10943 0.096114 -0.14638 0.072764 0.091245 0.038671 0.42497 0.51998 -0.032658 0.47233 0.5177 0.19128 -0.088191 -0.11469 -0.53092 0.33695 -0.32672 0.02117 0.18517 0.60249 -0.56456 -0.15655 0.3314 0.36657 -0.47564 0.089547 -0.027049 -0.12769 0.10995 -0.15674 -0.28655 0.18286 0.41082 -0.28592 0.068743 0.07381 -0.020173 -0.096371 -0.45179 0.1948 -0.10797 -0.23364 -0.59061 -0.18836 -0.33348 -0.45536 -0.13546
stroke 0.072789 -0.15339 0.17003 0.38031 0.33465 -0.47347 0.064815 -0.13085 0.28758 0.40901 -0.33379 0.13308 0.0070054 -0.69871 0.13032 0.096365 0.75991 -0.40533 0.041899 0.50657 -0.224 -0.27204 -0.34842 0.83513 -0.17136 -0.34791 0.83808 0.34666 -0.38891 0.65593 -0.58014 0.5725 -0.36168 -0.23031 -0.19332 0.33007 -0.27231 0.067804 0.24018 0.011134 -0.10151 0.71881 0.14145 0.50659 -0.38509 -0.24281 -0.02779 -0.086031 0.13962 0.75209 0.30687 -0.63422 0.38764 0.82231 -0.10223 0.33486 -0.017829 0.15604 0.67424 0.069397 0.36104 0.42521 0.25765 0.42736 0.46715 -0.86171 -0.19884 0.5409 -0.077175 0.12301 -0.11986 -0.067322 0.6937 -0.18541 -0.28864 0.44251 0.076259 0.37806 -0.079591 0.79219 0.24814 -0.043057 0.015427 -0.038936 -0.21242 0.19125 0.097964 -0.0063321 -0.374 0.34483 -0.34076 -0.20003 0.085659 -0.21819 -0.12462 -0.10345 -0.70037 -0.14239 0.73188 -0.29003
environment 0.10031 -0.19932 0.30246 -0.32609 0.60869 -0.089954 -0.16802 -0.44775 0.17606 -0.25069 -0.41049 0.13399 -0.089007 -0.14066 -0.19275 -0.027608 -0.55464 -0.42524 -0.24201 -0.18955 -0.03005 -0.19044 -0.13537 -0.042425 -0.15441 0.57415 0.54952 -0.27687 0.095277 0.23847 0.018868 0.17268 0.01075 0.36294 -0.38258 0.19422 -0.46358 -0.22266 0.23217 -0.22168 -0.11106 0.22099 0.31613 -0.010329 0.3204 0.2616 0.80943 -0.08312 -0.049018 0.12272 0.31858 -0.030935 -0.092316 0.6076 -0.76866 0.35944 -0.017079 -0.022958 0.3066 0.097095 0.68986 0.05133 -0.026642 -0.017812 0.054007 0.0055621 -0.557 -1.0632 -0.36952 -0.13069 0.16907 0.42111 0.033295 0.17009 -0.34227 0.1839 0.090727 0.11792 -0.01307 -0.054464 0.2185 0.14689 0.21446 0.26769 0.19643 0.036303 -0.4985 -0.037877 0.21678 -0.070216 0.14222 -0.38011 0.33787 -0.16429 -0.0045188 0.10171 0.17743 -0.34439 0.037483 -0.089045
coffee -0.13329 -0.26441 -0.0068019 0.22796 0.4129 0.25901 -0.41928 -0.14685 0.26109 0.48221 -0.058463 0.58924 -0.3055 -0.093094 -0.27096 -0.45337 0.3813 -0.45034 -0.50847 -0.41389 -0.32911 -0.36438 0.0045385 0.45935 0.28917 -0.33048 -0.26578 0.35988 -0.21203 0.54222 0.082497 0.27169 0.13956 -0.044399 -0.1069 -0.30748 0.47898 -0.21363 0.55564 -0.67003 0.040569 0.044486 0.66022 -0.27825 0.071088 -0.17909 0.24012 0.42393 -0.25498 -0.4969 0.10348 0.18226 -0.30181 -0.030207 -0.28105 0.33961 -0.38495 -0.074926 -0.052478 0.44274 0.65507 -0.25078 0.65531 0.22411 0.19795 -0.47856 -0.4097 -0.1265 -0.075523 0.054538 0.54583 -8.5516E-4 0.11608 0.02243 0.070158 0.01926 0.10271 0.32218 0.16653 -0.10445 0.93012 -0.51263 0.38647 0.39352 0.30033 0.41587 -0.75464 0.253 0.10131 -0.31108 -0.43561 -0.031373 -0.044476 0.10117 -0.39817 -0.36489 -0.49799 -0.024018 0.57995 -0.20999
baby 0.14018 0.32086 0.10317 0.48602 0.083583 -0.24194 -0.068541 0.042383 -0.070965 0.41357 -0.48345 0.94547 -0.29945 0.22815 0.13938 -0.58773 0.48116 -0.1527 -0.68417 -0.27135 0.34968 -0.13341 0.019887 -0.1152 0.058432 -0.046431 0.070375 0.38031 0.12285 0.4493 0.052642 0.41576 0.0048652 -0.31559 -0.32581 0.068693 0.2293 0.026962 -0.02708 -0.52875 0.31969 0.40383 0.36337 -0.31323 0.32342 0.59802 -0.2063 0.36117 0.29047 0.35886 0.14924 -0.26682 0.1065 -0.011495 -0.30955 0.088894 -0.05103 -0.79622 0.33564 0.7413 0.43747 -0.093803 -0.13841 -0.85347 -0.025296 -0.073435 -0.1346 -0.41438 -0.26654 -0.072424 -0.016975 0.39358 0.42689 0.053669 -0.65348 0.54075 0.22909 0.38342 0.29086 0.98723 0.25678 0.0080656 -0.035386 0.24472 -0.36735 0.32148 -0.0026598 -0.51674 0.1849 0.41521 -0.38656 -0.11884 0.16066 0.2201 0.049085 -0.17109 -0.89621 0.32399 0.43086 -0.10723
personnel -0.36924 0.017965 0.81614 -0.31438 -0.2406 0.26915 -0.012207 -0.94719 0.51481 -0.23604 -0.4319 0.31796 -0.37765 0.30347 -0.03629 -0.20206 -0.055936 -0.18065 -0.50628 -0.16825 0.041424 -0.12431 -0.4477 0.092713 0.25991 0.091952 0.29697 -0.022075 -0.21676 0.48712 0.17824 0.17891 -0.13237 0.25053 -0.24134 -0.22322 0.29384 0.35726 -0.39421 0.43851 -0.42018 0.30609 -0.097481 0.48075 0.32878 0.035358 0.60131 0.62219 -0.37037 0.12721 -0.49609 -0.41584 -0.13372 0.27034 -0.10448 0.074044 0.082468 0.20135 0.21834 -0.26521 1.0318 0.302 -0.050545 -0.15428 -0.039798 -0.26877 -0.028013 0.14073 0.041383 -0.61388 -0.28854 -0.16764 0.084621 0.19347 0.57176 -0.088371 -0.2003 0.085252 -0.16156 0.29426 -0.25014 0.062299 0.24546 -0.0073386 -0.14966 0.13005 -0.40612 -0.29915 -0.067472 0.33752 0.21265 -0.59566 0.41509 -0.061354 0.092314 0.3823 0.040623 0.039382 -0.1622 0.3934
family 0.12825 -0.1197 0.41776 0.22565 -0.14581 -0.044469 0.011318 0.088693 0.11268 -0.36377 -0.34477 0.3023 -0.39383 0.3593 -0.35803 -0.28439 0.026231 0.14721 -0.32977 -0.27901 -0.018763 0.34373 -0.002294 -0.133 0.10342 -0.30744 0.20847 0.44965 0.29565 0.25654 -0.10119 -0.019623 0.37109 -0.019875 -0.28436 -0.038405 0.1084 0.21016 -0.53074 -0.046316 0.10157 0.8101 -0.083479 -0.25582 0.17512 0.5379 0.072962 0.32631 -0.099343 0.14283 0.15869 -0.23851 0.1825 0.23087 -0.26256 0.094851 -0.24373 0.14587 -0.19344 0.23138 0.591 -0.20308 0.11085 -0.28315 0.46122 -0.14388 0.0071695 -0.082533 0.0584 -0.31993 0.45982 0.79913 0.30153 0.039647 -0.14585 0.13566 -0.10236 0.2059 -0.065641 0.065466 0.5215 -0.060602 0.43634 -0.2844 -0.17658 0.28348 -0.022623 -0.076273 -0.17222 0.44069 -0.18655 -0.41021 0.092631 0.078567 0.32309 0.019299 -0.16869 -0.45974 0.24393 -0.33931
hypertension -0.36941 -0.16205 -0.052881 -0.12387 0.44258 -0.39366 -0.52623 -0.39484 -0.0078093 -0.11166 -0.10551 0.61712 -0.21145 -0.19194 -0.46737 0.14659 0.48585 -0.67034 -0.26006 -0.46535 -0.06512 -0.028693 0.080002 0.31161 0.17539 0.13862 0.81392 0.31112 -0.67963 0.28053 -0.23309 0.26999 -0.33713 0.52783 -0.52825 0.25196 0.035806 0.19483 0.12535 0.10231 0.12615 0.34541 0.14868 0.15278 -0.11255 -0.05568 -0.24915 0.55004 0.15977 0.76616 0.48931 -0.082674 -0.15616 0.54519 -0.038783 0.28613 0.11461 -0.26943 0.88582 0.32159 0.26913 -0.23566 0.011669 0.060073 0.45481 -0.33368 -0.23207 0.052292 -5.0764E-4 -0.026952 -0.093056 -0.1005 0.72461 -0.0666 0.20311 0.27624 -0.027457 0.46599 0.066384 0.45846 0.056428 -0.01622 0.22568 -0.30554 0.031111 0.204 -0.081508 -0.51797 0.23136 -0.52622 0.17425 -0.18392 0.29518 0.2591 -0.0051121 -0.017886 -0.33159 -0.54335 0.29268 -0.32356
president 0.35104 -0.13365 0.10445 0.25049 0.46571 0.14409 0.25926 -0.18529 -0.10087 -0.46505 -0.32013 0.045842 -0.080528 0.24191 0.16675 -0.044126 0.13838 0.042733 -0.011731 -0.44448 0.54971 0.27955 -0.39584 -0.2215 -0.075568 -0.10996 0.59927 -0.34199 -0.072787 0.05577 0.11051 0.090186 0.28913 0.47972 -0.40461 -0.08189 -0.089955 0.16535 0.0071819 -0.68582 -0.18385 0.17399 -0.059759 -0.07168 -0.48583 -0.1235 0.37441 0.70963 -0.17789 0.16654 0.34934 -0.59209 -0.21354 0.30291 0.2942 0.015331 0.023735 0.33551 -0.23044 0.36456 0.3072 -0.7639 -0.035537 0.25658 -0.51114 -0.1667 -0.027799 -0.16423 -0.015994 -0.26453 -0.16466 0.048582 0.60806 -0.32027 0.30758 0.2867 -0.22118 0.27123 0.105 0.54783 0.016453 -0.064826 -0.35859 0.54142 -0.19119 -0.027269 -0.62522 0.30106 0.0048212 -0.040582 0.065838 -0.30982 0.69168 -0.34481 -0.067535 -0.30466 -0.14594 0.10204 0.45514 -0.085349
atmosphere 0.13547 -0.14661 0.038504 0.15161 0.27411 -0.31959 -0.56368 -0.091791 0.13742 0.31801 -0.1432 -0.34265 0.58019 -0.5054 -0.0090901 -0.023881 -0.44256 -0.61532 -0.28426 -0.34775 -0.61394 0.052649 -0.38127 0.098108 -0.4034 0.4303 0.62052 0.088261 -0.32682 0.40427 0.66058 0.21348 -0.049227 0.091354 -0.13369 0.085843 0.063019 -0.33024 -0.50382 -0.11119 -0.047245 -0.047865 -0.25334 -0.2137 0.03039 0.33562 0.47476 0.55769 0.12259 -0.40512 0.57965 -0.20476 0.16955 0.37943 -0.54497 -0.44928 0.0020714 -0.12208 0.22833 0.19908 0.5633 -0.15584 0.4092 0.092603 0.0030923 -0.3401 -0.65452 -0.53204 0.16019 -0.056481 0.12557 0.36648 0.49937 0.085089 -0.46558 0.60692 0.15922 -0.09796 0.37761 -0.50477 0.23663 -0.2999 0.15961 -0.43833 0.39289 -0.046623 -0.5494 0.093935 0.1727 -0.03586 -0.21542 -0.40158 0.26019 -0.35244 0.13904 0.29646 0.068427 -0.3041 0.57511 -0.098319
practice -0.49332 -0.55334 -0.12718 -0.048703 0.27873 -0.080182 0.21132 0.040908 0.22175 -0.086225 -0.61578 -0.27965 -0.31145 0.013831 -0.019444 0.23527 -0.076335 -0.34277 -0.30949 0.13987 -0.16011 -0.38679 -0.11128 0.036901 -0.38523 -0.052155 0.36064 0.04255 -0.19685 -0.092779 0.054103 -0.37272 -0.050754 -0.24074 -0.23557 0.39812 0.44957 0.090259 0.41748 -0.069675 -0.41107 0.45182 0.0052083 -0.026073 0.32368 -0.24922 0.28074 0.2723 0.0041759 0.43414 0.19086 -0.59079 -0.3407 0.012282 -0.50723 0.54973 0.12774 -0.5725 -0.20058 -0.076789 0.90039 -0.23381 0.21745 0.26784 0.11618 0.34491 -0.63779 0.037677 -0.19334 -0.42825 -0.20146 -0.17867 0.12955 0.080214 0.18312 0.1794 0.43781 0.16238 -0.031627 0.28243 0.20506 0.58819 0.10905 0.17984 -0.0031784 0.55854 0.25832 -0.21081 0.0038303 -0.15476 -0.22721 -0.40228 0.094119 0.47951 0.069154 -0.34749 0.10383 0.022482 0.14591 0.23598
movie 0.098716 0.30431 0.13273 -0.36397 -0.35258 0.34968 -0.22312 0.056956 -0.041626 -0.40732 -0.33272 0.62322 0.078998 0.036013 -0.32002 -0.48631 0.0051771 -0.85003 -0.48482 -0.13346 -0.43717 -0.024721 -0.26299 0.2001 -0.70103 -0.61988 0.67248 -0.21939 0.29556 0.84931 0.084744 -0.03258 -0.0966 -0.47657 -0.045237 -0.33582 -0.19455 0.49601 -0.25612 -0.84256 0.046165 0.047925 -0.44036 -0.32794 0.089575 0.043745 0.23653 0.60376 0.054007 -0.15717 0.79159 0.3157 -0.1362 0.43904 0.2665 0.040289 0.3815 0.14069 0.06839 0.18284 0.033837 -0.39411 0.42182 -0.14914 0.58396 -0.088686 0.012319 0.37107 -0.32684 -0.098635 -0.0093888 0.37491 0.090263 0.086955 -0.53528 -0.086957 -0.01088 0.05612 -0.28655 -0.54502 0.28647 0.19793 0.083905 0.33895 0.078195 -0.10254 0.019477 -0.14267 0.038004 0.60219 -0.056938 -0.28396 0.24612 -0.16986 0.28282 0.14422 -0.52232 -0.086223 0.10795 -0.47854
popcorn -0.2415 -0.06146 -0.059947 0.45756 0.14897 -0.11884 -0.6406 -0.12918 0.28739 0.068462 -0.30587 0.66004 -0.16912 -0.0050467 -0.49798 -0.36574 0.17675 -0.74358 -0.61208 -0.77011 -0.4953 -0.13973 -0.33306 0.29278 0.035197 -0.46462 0.12176 -0.073728 0.11742 0.85349 0.3546 0.022867 -0.018809 0.046806 0.24412 -0.082249 0.34367 0.14375 0.10448 -0.60808 0.18036 -0.11577 0.18006 -0.33039 -0.096804 0.27228 0.066401 0.17464 0.31264 -0.26413 0.30074 0.40245 0.066867 -0.079667 0.10233 0.52287 0.16657 -0.50312 0.35389 0.41623 -0.1903 -0.2661 0.32957 0.52356 0.60897 -0.17141 -0.45875 -0.2373 0.086493 -0.41307 -0.078796 -0.03826 0.2585 0.1603 -0.28592 0.13511 -0.1761 0.024793 0.34153 -0.1299 0.63525 -0.088934 0.46398 -0.0010678 0.46576 0.20246 -0.22925 -0.21538 0.11349 -0.069501 -0.4392 -0.15845 0.3921 0.20526 -0.15766 -0.13051 -0.81044 -0.19907 0.20888 0.010693
recommendation 0.10663 -0.16423 0.32894 -0.084469 0.33499 0.44154 0.0040952 -0.47317 0.35482 -0.33589 -0.25683 -0.11211 -0.0511 -0.1158 0.35345 -0.39441 -0.037542 -0.41593 -0.051661 -0.30647 0.31485 0.1622 -0.27339 0.19259 0.61094 -0.31646 0.42051 0.067575 0.46949 0.35572 0.011194 0.55506 0.068682 0.043873 -0.10944 -0.071662 -0.026642 -0.10988 -0.28293 -0.14852 0.21682 0.0013736 0.077659 0.57924 -0.049669 -0.35004 -0.18331 0.20824 0.12045 0.38492 -0.12274 -0.55638 -0.60788 0.35014 -0.24005 0.23187 -0.65966 -0.63533 -0.050874 0.078186 0.71155 -0.4321 0.1832 0.31328 0.36329 -0.10224 -0.48574 -0.022863 -0.56307 -0.041337 -0.38818 0.05223 0.32254 -0.020429 0.60965 -0.031705 -0.21185 0.2245 -0.069349 -0.42006 -0.42512 -0.095219 0.085554 0.26791 -0.23422 0.1694 -0.043139 -0.1417 0.17611 0.29779 -0.23188 -0.49918 -0.092949 0.15158 -0.0061825 -0.2523 0.091659 -0.30521 0.29958 -0.42589
focus -0.05969 -0.32176 0.56093 -0.30504 0.39572 -0.0089842 0.069105 -0.58187 -0.014551 -0.35449 -0.15543 0.28561 -0.33283 0.085924 0.37054 -0.25997 -0.33555 -0.41007 -0.1619 0.18772 -0.012754 0.0083811 0.21894 -0.0097174 0.076883 -0.36141 0.53426 -0.16419 -0.026671 -0.030087 -0.098789 0.34559 0.69197 0.085984 -0.188 -0.043474 -8.7356E-4 -0.29453 0.20279 -0.30634 0.13019 -0.27677 -9.1585E-4 -0.34084 0.0044203 -1.6098E-4 -0.12197 0.13212 0.023831 0.13462 0.37685 -0.47716 -0.035414 0.49745 -0.24464 -0.025177 -0.25001 -0.22928 -0.38102 -0.1662 0.37546 0.0020363 -0.053647 0.11594 0.14415 -9.5905E-4 -0.40254 -0.13912 -0.29482 -0.57553 -0.068454 0.31373 0.49232 -0.041215 -0.096762 0.22272 0.62175 0.11647 -0.25156 0.088781 -0.34648 0.30699 0.60233 0.0079066 -0.020452 0.396 -0.082989 0.11027 0.34706 -0.24656 -0.11158 -0.21211 0.22315 0.72864 0.13876 -0.34784 -0.1244 -0.32915 -0.16899 -0.13136
attempt 0.031326 -0.16903 -0.33208 0.23093 -0.55842 -0.34755 0.18209 -0.3203 0.055144 0.065293 -0.38006 -0.30697 0.10951 0.17177 1.0168 0.091205 -0.27696 -0.30257 -0.40827 0.18059 -0.16256 -0.24155 -0.37964 0.21053 0.38772 0.053004 0.58959 0.71074 0.0735 0.52979 0.52756 -0.21259 -0.17964 -0.51882 -0.16824 0.025187 0.30704 -0.075756 0.23422 -0.011071 -0.15707 0.29937 0.016316 0.31395 0.22562 0.037408 -0.086269 0.30916 -0.16007 -0.10091 0.074722 -0.17623 -0.44522 0.23944 0.18785 -0.1406 -0.097444 0.31676 0.044703 0.13847 0.33402 -0.061128 0.37832 0.33514 -0.071083 0.15151 -0.50636 -0.25451 -0.0069878 -0.19972 0.024405 0.57089 0.32057 -0.33091 -0.30683 0.36149 -0.045428 0.3099 -0.32758 -0.023264 -0.19194 -0.1658 0.39004 0.57475 0.028143 -0.63072 -0.068834 0.35075 0.48886 0.049076 -0.15833 -0.17056 0.26223 -0.04184 0.46634 0.2699 0.17155 -0.17523 0.20306 -0.33971
approach 0.35804 -0.51754 0.36904 0.14538 0.40619 0.16087 -0.044463 -0.20675 0.28707 -0.38019 0.034569 0.1924 -0.0060248 -0.016393 0.51445 -0.12326 -0.18211 -0.44608 -0.34902 0.56144 -0.10851 -0.042039 -0.16631 -0.02316 -0.11689 0.18464 0.78274 0.10432 -0.19346 0.03564 0.14316 0.27135 -7.1755E-4 0.076828 -0.087796 -0.045649 -0.30537 -0.06197 0.5256 0.070963 0.066562 -0.0099429 -0.052044 0.12858 0.20339 0.29893 0.016666 0.1433 -0.021878 0.076722 0.55718 -0.50954 -0.4323 0.53095 -0.1444 -0.19099 -0.24675 -0.43853 -0.023033 0.0039114 0.66806 -0.11243 0.31623 0.32608 0.36571 -0.051272 -0.51689 0.039467 -0.47738 -0.18351 -0.11091 -0.03732 0.31485 -0.1227 0.040233 0.34988 0.11018 0.23646 -0.2457 0.043473 -0.32903 0.16567 -0.1049 0.45158 0.052082 -0.050677 0.13517 -0.014976 0.27796 -0.42042 -0.093297 -0.73594 -0.0065874 -0.1337 0.076897 0.11127 0.09074 -0.038514 0.24115 0.14295
number -0.64099 0.3528 0.2647 0.28973 0.0040753 0.23364 -0.026472 -0.4123 -0.26094 -0.18318 -0.26521 -0.12198 -0.26746 0.057861 0.37628 -0.23257 0.021728 -0.49583 -0.27646 0.31039 -0.91121 -0.02636 0.080074 -0.10084 0.36075 0.018276 0.80921 -0.1374 -0.0039485 0.074262 -0.51724 0.51632 -0.030467 -0.23093 0.0023203 -0.0025998 -0.17107 -0.20411 -0.13619 0.14425 0.04056 0.29919 -0.12066 -0.048754 0.26808 0.018968 -0.050293 0.48001 0.0026329 -0.15027 -0.50479 -0.12067 0.076282 0.19542 -0.11262 0.13813 0.12248 0.18594 0.51383 0.31829 0.69174 -0.25297 0.28901 -0.063728 -0.18094 -0.21585 -0.19285 0.064832 -0.11811 -0.4551 -0.39001 -0.034175 0.24584 -0.17329 0.099547 -0.077418 0.034175 0.093413 -0.28523 0.29676 0.25969 -0.33591 0.41286 -0.20616 -0.04143 0.32073 0.3395 -0.021083 -0.38807 -0.046174 0.22934 -0.42996 -0.057499 -0.42198 -0.14178 -0.58114 -0.30248 -0.28435 0.11657 -0.19425
property -0.37993 -0.35232 0.1324 -0.52779 -0.58464 -0.18139 -0.024822 -0.17568 0.10652 -0.22337 -0.26208 0.34525 -0.34513 0.39661 -0.60907 -0.35995 -0.70844 0.025602 -0.11374 -0.45803 0.0032092 0.52365 -0.13478 -0.14471 -0.10241 -0.47868 0.69405 0.044326 0.14067 0.20102 -0.4905 0.15686 0.072349 0.1216 -0.39977 0.3126 -0.21777 -0.019383 0.77068 -0.011978 -0.0709 0.25199 0.52142 -0.51655 -0.16957 0.45425 0.16399 0.57292 -0.3215 0.20575 -0.31187 0.19215 0.10602 0.39036 -0.26965 0.16837 0.016329 4.8914E-4 0.61309 -0.083394 0.70535 -0.07876 0.1915 0.011808 0.028388 -0.29875 0.52157 -0.35113 -0.30517 -0.2585 0.54276 0.56143 -0.24453 0.10374 -0.31831 0.31903 -0.61711 -0.12442 -0.21836 0.47201 0.16961 0.28918 0.65524 -0.034203 0.0042079 0.0081186 -0.19062 0.18365 -0.06471 0.21447 -0.49535 -0.33731 -0.0038902 -0.24441 0.37579 0.020081 0.2879 0.02459 0.32468 0.0087303
fingerprint -0.47411 0.16802 0.35368 0.23103 -0.2957 -0.075936 -0.12554 -0.063153 0.25745 -0.041358 -0.32617 -0.04563 0.048926 0.34478 0.16773 -0.55716 -0.53295 -0.73876 0.042735 -0.013084 0.086655 -0.52345 -0.27549 -0.19833 0.42614 -0.47751 0.45907 0.2341 -0.49262 0.23905 -0.24204 0.072004 -0.50384 -0.1517 -0.48412 0.025315 0.18029 -0.022106 -0.32702 -0.20821 -0.38968 -0.046752 0.24962 -0.12743 0.14987 -0.25435 -0.070949 0.29162 -0.4629 0.86815 -0.59993 -0.3083 0.18057 0.083767 0.014521 0.12707 0.20847 -0.33995 0.021111 0.40667 0.69554 -0.29327 0.15173 0.13936 0.070379 -0.10528 -0.21628 -0.11474 -0.33901 0.45779 -0.45546 0.14229 0.11844 0.029719 -0.12356 -0.0087654 -0.13811 0.19688 -0.21709 0.50738 0.041176 -0.35896 0.43526 -0.50608 -0.17105 -0.14391 0.54106 -0.075841 0.70128 0.15298 0.10599 -0.38073 0.24968 0.56649 0.1865 -0.21074 -0.12509 -0.14983 0.44256 0.20197
reservation -0.12297 -0.58039 -0.12497 -0.24202 -0.0917 0.37404 0.02049 0.010271 -0.050544 -0.30868 -0.54209 0.23951 -0.13365 0.052821 -0.20457 -0.19492 0.013735 -0.262 0.12954 -0.3706 0.11014 0.13584 0.2924 -0.024658 0.21533 -0.15821 0.57659 -0.0022407 0.4574 0.43741 -0.40454 0.10543 -0.22976 -0.10635 -0.54671 -0.14344 0.16449 0.35537 -0.065311 0.23495 -0.22475 0.013231 0.27334 0.1242 0.26233 0.54902 0.079941 0.3366 0.089686 -9.4398E-5 -0.042555 -0.098952 -0.26692 0.19488 -0.4044 -0.21407 -0.20287 -0.1875 0.19288 -0.18101 0.79662 -0.36518 0.33214 0.16172 0.031757 -0.066021 -0.59411 -0.046741 0.07825 -0.24534 0.15414 -0.011893 0.035353 0.16034 0.20092 0.068086 -0.12087 0.14613 0.15232 0.34637 0.24686 -0.15367 0.36208 -0.29092 0.18015 -0.37911 -0.273 0.062436 -0.044001 0.26778 -0.13456 -0.48977 0.090638 -0.12102 0.24401 0.10651 -0.38272 0.0045895 0.16015 0.13111
block -0.044139 0.52715 0.29825 0.23369 -0.16911 -0.30486 -0.10038 -0.34774 0.19614 -0.063533 0.10244 -0.21662 0.013976 0.3644 -0.16718 -0.28793 -0.22353 -0.56464 -0.43751 0.050472 0.010419 -0.021868 0.13034 -0.11691 0.41808 -0.31129 0.61621 0.040174 0.42343 0.27643 -0.37125 -0.27489 -0.36824 -0.022554 -0.34936 0.067212 0.42782 0.14219 0.48694 -0.11329 -0.53432 0.074692 0.31944 -0.32704 0.031659 0.026616 -0.18897 0.63804 -0.1271 -0.25344 0.37418 0.34396 -0.43675 0.3296 -0.25644 -0.22844 0.034022 0.11244 0.19901 0.12011 0.16325 0.044589 -8.3926E-4 0.67942 0.022201 0.17547 -0.22714 0.45776 -0.38496 -0.11756 0.036562 0.3098 0.23535 -0.29031 -0.019069 0.12868 0.11393 0.7854 0.11081 0.020409 -0.19876 0.037924 0.57939 -0.2308 -0.27025 -0.37817 -0.064636 0.15047 0.33897 -0.17342 -0.31791 0.18673 0.18076 -0.66604 0.14757 -0.012718 0.34341 0.018086 0.49347 -0.17556
fear -0.026291 0.11844 -0.041748 -0.070797 -0.20773 -0.44576 0.0045832 -0.081775 0.041865 -0.10523 -0.51755 -0.010284 -0.1572 -0.14702 -0.21477 -0.45083 -0.13584 -0.28723 -0.50456 -0.069821 -0.46842 0.30657 0.66465 0.23098 0.48098 0.49592 0.66897 -0.13459 -0.3726 -0.0010491 -0.0254 -0.41869 -0.29746 -0.070098 -0.27322 -0.20782 0.27367 0.088388 0.017874 -0.17724 0.13799 0.039738 -0.15566 -0.22575 0.058051 0.31142 -0.25188 -0.090206 -0.25362 0.06489 0.15109 -0.4249 -0.42263 0.47723 -0.21927 0.057565 0.18193 0.10502 0.33835 -0.12701 0.39052 -0.01919 0.45456 -0.20648 0.41924 -0.4305 -0.084378 -0.74898 -0.21341 -0.30188 -0.2603 0.13538 0.55777 -0.3095 -0.20983 0.044964 -0.071436 0.40081 -0.13655 0.44333 0.056114 0.35273 0.10098 -0.010737 0.12901 0.051307 -0.16733 0.14264 0.44254 0.11731 0.17677 -0.33744 0.35541 0.2637 0.36037 -0.33752 -0.17204 -0.32684 0.34994 -0.35839
surface 0.21441 -0.61199 0.49471 -0.018291 -0.043349 -0.77237 -0.23112 -0.28757 -0.071685 0.083533 -0.35946 0.019255 0.38952 -0.41324 -0.028272 -0.094625 -0.14955 -0.61906 4.2181E-4 -0.55933 0.24667 -0.097473 -0.37213 -0.10548 -0.20466 -0.12196 0.23074 -0.19038 -0.25463 0.53151 0.47706 0.49637 -0.32889 -0.20671 0.25107 0.17817 0.27253 -0.37248 0.097458 0.091372 -0.32653 -0.013466 0.46068 -0.2847 0.3706 0.10542 0.25431 0.3869 -0.25351 0.019157 0.10268 -0.19146 0.3978 0.3233 -0.42845 -0.15614 0.05226 -0.5905 0.70348 -0.27959 0.079332 0.29696 0.5326 0.039993 -0.11808 -0.55587 -0.41976 -0.15189 0.17373 -0.12028 -0.33995 0.4023 0.23345 0.03387 -0.32714 0.17841 0.48156 0.22662 0.21603 -0.044787 0.060143 -0.0034951 0.31558 -0.44256 -0.24085 0.2088 0.14142 -0.091545 0.33292 -0.089966 -0.10667 -0.55175 0.32264 -0.051302 0.50705 -0.17858 -0.43329 0.12898 0.78254 0.43678
issue -0.30704 -0.062922 0.0043145 -0.26174 0.23984 -0.073911 0.052918 -0.44323 0.288 -0.11944 -0.41775 0.71086 0.18098 0.28019 0.4705 -0.16622 -0.34175 -0.32287 0.12782 -0.04785 0.34121 0.17619 -0.1652 -0.19613 -0.25362 0.089883 0.42508 -0.26532 -0.1199 -0.076171 -0.017478 0.52926 -0.11087 0.1121 -0.47345 0.14719 0.046719 -0.61183 0.31636 -0.40214 0.040873 -0.048882 0.14102 -0.37504 0.48151 0.20132 -0.30845 0.59862 0.45224 0.45829 0.17837 -0.48547 -0.28881 0.036037 -0.040965 -0.2303 -0.52593 0.0033577 -0.072712 -0.097545 0.36177 -0.33134 0.25718 0.60926 -0.054147 0.17112 -0.40477 -0.3425 -0.28778 -0.35172 -0.2516 0.36497 0.505 0.15667 0.035472 -0.1679 -0.41786 0.29173 -0.10275 0.2074 0.052746 0.03432 0.31784 0.041063 0.40022 0.048551 0.118 0.13336 0.044744 -0.36102 -0.037719 -0.15853 0.28412 0.40927 0.059471 -0.52118 0.077291 -0.24353 0.5243 -0.09172
metal -0.083547 -0.024909 0.2503 -0.22002 -0.52395 -0.72411 -0.73561 -0.73441 0.024796 0.49067 -0.033806 -0.33433 0.34094 -0.080076 -0.38283 -0.28048 -0.36958 -0.46809 -0.72112 -0.87212 -0.15673 -0.11297 -0.068443 0.17982 0.16912 -0.67333 0.25107 0.23293 -0.0060695 0.48812 -0.40128 -0.41661 -0.36634 0.071273 -8.2879E-4 0.19861 0.38678 -0.021598 -0.21167 -0.46871 -0.12796 -0.14302 0.45178 -0.30862 0.15607 0.037227 -0.069779 0.42998 -0.41773 -0.088334 0.15745 0.072095 -0.050433 -0.10127 0.076009 0.15005 0.28744 -0.67444 0.64339 0.1773 0.21956 0.2636 0.037138 -0.20102 0.031607 -0.52745 -0.33503 -0.18399 -0.17332 -0.16231 -0.30935 -0.43172 0.043898 0.051106 -0.54146 -0.001994 -0.025008 0.55611 -0.36467 0.18222 0.21811 0.1034 0.92892 0.068559 -0.17926 -0.22664 -0.36011 2.1158E-4 0.27618 -0.15597 0.018356 -0.45057 -0.1823 0.04588 -0.008027 -0.22218 -0.82585 0.45235 0.26326 0.54647
